{"learner":{"attributes":{"scikit_learn":"{\"_estimator_type\": \"regressor\"}"},"feature_names":["base_duration","distance","precip_prob","is_rain","is_heavy_rain","day_of_week","is_weekend","is_friday","hour","is_morning_rush","is_evening_rush","is_late_night","is_holiday","is_major_holiday","is_pre_holiday","is_post_holiday","is_bridge_day","is_summer_vacation","is_spring_blossom","is_autumn_foliage","is_year_end"],"feature_types":["int","float","int","int","int","int","int","int","int","int","int","int","int","int","int","int","int","int","int","int","int"],"gradient_booster":{"model":{"cats":{"enc":[],"feature_segments":[],"sorted_idx":[]},"gbtree_model_param":{"num_parallel_tree":"1","num_trees":"200"},"iteration_indptr":[0,1,2,3,4,5,6,7,8,9,10,11,12,13,14,15,16,17,18,19,20,21,22,23,24,25,26,27,28,29,30,31,32,33,34,35,36,37,38,39,40,41,42,43,44,45,46,47,48,49,50,51,52,53,54,55,56,57,58,59,60,61,62,63,64,65,66,67,68,69,70,71,72,73,74,75,76,77,78,79,80,81,82,83,84,85,86,87,88,89,90,91,92,93,94,95,96,97,98,99,100,101,102,103,104,105,106,107,108,109,110,111,112,113,114,115,116,117,118,119,120,121,122,123,124,125,126,127,128,129,130,131,132,133,134,135,136,137,138,139,140,141,142,143,144,145,146,147,148,149,150,151,152,153,154,155,156,157,158,159,160,161,162,163,164,165,166,167,168,169,170,171,172,173,174,175,176,177,178,179,180,181,182,183,184,185,186,187,188,189,190,191,192,193,194,195,196,197,198,199,200],"tree_info":[0,0,0,0,0,0,0,0,0,0,0,0,0,0,0,0,0,0,0,0,0,0,0,0,0,0,0,0,0,0,0,0,0,0,0,0,0,0,0,0,0,0,0,0,0,0,0,0,0,0,0,0,0,0,0,0,0,0,0,0,0,0,0,0,0,0,0,0,0,0,0,0,0,0,0,0,0,0,0,0,0,0,0,0,0,0,0,0,0,0,0,0,0,0,0,0,0,0,0,0,0,0,0,0,0,0,0,0,0,0,0,0,0,0,0,0,0,0,0,0,0,0,0,0,0,0,0,0,0,0,0,0,0,0,0,0,0,0,0,0,0,0,0,0,0,0,0,0,0,0,0,0,0,0,0,0,0,0,0,0,0,0,0,0,0,0,0,0,0,0,0,0,0,0,0,0,0,0,0,0,0,0,0,0,0,0,0,0,0,0,0,0,0,0,0,0,0,0,0,0],"trees":[{"base_weights":[1.0271038E-2,-6.583909E0,7.53012E1,-2.5892448E1,1.267687E1,5.9653934E1,1.5848747E2,-3.654391E1,-1.7475754E1,-1.2190926E1,3.8247776E1,4.2210064E1,8.473398E1,1.3645996E2,1.7857349E2,-3.820559E1,1.5886541E1,-2.9643589E1,-4.2623816E0,-1.9273891E1,3.8856075E1,3.1061443E1,9.02809E1,3.0808205E1,5.349895E1,5.725517E1,1.12334526E2,1.3170113E2,1.3255709E1,1.4951709E2,2.0719461E2,-3.8839737E1,4.8946438E1,2.948427E0,7.097769E0,-3.1184E1,2.2966457E1,-8.048021E0,2.0976917E1,-1.0028678E1,-3.3923565E1,2.6963263E1,5.6864086E1,2.0606195E1,4.737009E1,6.953819E1,1.1213233E2,2.7122065E1,5.9520214E1,3.816553E1,6.915965E1,4.937348E1,1.0797188E2,1.05785324E2,1.620597E2,9.963089E0,1.4586928E2,1.6101273E2,1.24258026E2,2.186292E2,1.4579344E1,-3.446929E0,-2.749734E0,3.5022707E0,4.505834E0,1.9117209E0,-6.1050814E-1,-2.7619166E0,-5.2212715E-1,1.0915083E0,6.9024734E0,-7.8066176E-1,3.26572E0,7.097234E-1,2.6604369E0,1.1698803E0,-1.7009017E0,-2.849231E0,1.3958203E0,1.8150073E0,3.9820645E0,4.0563197E0,7.0844016E0,2.4098482E0,4.0434197E-1,2.467792E0,4.9979444E0,4.6938157E0,6.90031E0,7.9613914E0,1.0761035E1,1.5817825E0,2.6595688E0,5.95946E0,4.307156E0,2.662793E0,5.9671273E0,4.9306216E0,6.5248194E0,4.743336E0,2.4792843E0,7.293124E0,9.572488E0,9.294234E0,6.9663525E0,1.0486982E1,1.3817122E1,1.0007089E1,1.3064237E1,1.2087156E1,1.4985302E1,1.8836114E0,1.0028834E1,1.478168E1,1.8435432E1],"categories":[],"categories_nodes":[],"categories_segments":[],"categories_sizes":[],"default_left":[0,0,0,0,0,0,0,0,0,0,0,0,0,0,0,0,0,0,0,0,0,0,0,0,0,0,0,0,0,0,0,0,0,0,0,0,0,0,0,0,0,0,0,0,0,0,0,0,0,0,0,0,0,0,0,0,0,0,0,0,0,0,0,0,0,0,0,0,0,0,0,0,0,0,0,0,0,0,0,0,0,0,0,0,0,0,0,0,0,0,0,0,0,0,0,0,0,0,0,0,0,0,0,0,0,0,0,0,0,0,0,0,0,0,0],"id":0,"left_children":[1,3,5,7,9,11,13,15,17,19,21,23,25,27,29,31,33,35,37,39,41,43,45,47,49,51,53,55,-1,57,59,61,63,65,-1,67,69,71,73,75,77,79,81,83,85,87,89,91,93,95,97,99,101,103,105,-1,107,109,111,113,-1,-1,-1,-1,-1,-1,-1,-1,-1,-1,-1,-1,-1,-1,-1,-1,-1,-1,-1,-1,-1,-1,-1,-1,-1,-1,-1,-1,-1,-1,-1,-1,-1,-1,-1,-1,-1,-1,-1,-1,-1,-1,-1,-1,-1,-1,-1,-1,-1,-1,-1,-1,-1,-1,-1],"loss_changes":[3.1682998E7,2.1821788E7,6.679662E6,2.62629E6,1.8679796E7,1.889457E6,3.3534E5,1.127362E6,2.631812E6,5.385524E6,5.412786E6,3.270885E5,1.339023E6,3.2717E4,3.19968E5,6.94734E5,3.7479572E5,6.91348E5,7.5011644E5,1.7710715E6,3.87178E5,2.169117E6,7.88575E5,1.3311562E5,3.0520975E5,3.5083125E5,2.7074E5,1.65395E4,0E0,4.1841E4,2.0075E4,2.34686E5,1.0033906E3,7.531362E4,0E0,6.816725E5,1.4225494E5,5.709094E5,1.5190866E5,2.221113E6,4.40391E5,1.05675875E5,1.3626275E5,1.1479318E6,1.238646E6,1.59128E5,2.27724E5,5.0192E4,8.23775E3,1.130675E5,5.4056E4,1.3909662E5,1.2461625E4,1.42295E5,1.068825E4,0E0,1.90615E4,9.02375E3,4.93125E3,1.30195E4,0E0,0E0,0E0,0E0,0E0,0E0,0E0,0E0,0E0,0E0,0E0,0E0,0E0,0E0,0E0,0E0,0E0,0E0,0E0,0E0,0E0,0E0,0E0,0E0,0E0,0E0,0E0,0E0,0E0,0E0,0E0,0E0,0E0,0E0,0E0,0E0,0E0,0E0,0E0,0E0,0E0,0E0,0E0,0E0,0E0,0E0,0E0,0E0,0E0,0E0,0E0,0E0,0E0,0E0,0E0],"parents":[2147483647,0,0,1,1,2,2,3,3,4,4,5,5,6,6,7,7,8,8,9,9,10,10,11,11,12,12,13,13,14,14,15,15,16,16,17,17,18,18,19,19,20,20,21,21,22,22,23,23,24,24,25,25,26,26,27,27,29,29,30,30,31,31,32,32,33,33,35,35,36,36,37,37,38,38,39,39,40,40,41,41,42,42,43,43,44,44,45,45,46,46,47,47,48,48,49,49,50,50,51,51,52,52,53,53,54,54,56,56,57,57,58,58,59,59],"right_children":[2,4,6,8,10,12,14,16,18,20,22,24,26,28,30,32,34,36,38,40,42,44,46,48,50,52,54,56,-1,58,60,62,64,66,-1,68,70,72,74,76,78,80,82,84,86,88,90,92,94,96,98,100,102,104,106,-1,108,110,112,114,-1,-1,-1,-1,-1,-1,-1,-1,-1,-1,-1,-1,-1,-1,-1,-1,-1,-1,-1,-1,-1,-1,-1,-1,-1,-1,-1,-1,-1,-1,-1,-1,-1,-1,-1,-1,-1,-1,-1,-1,-1,-1,-1,-1,-1,-1,-1,-1,-1,-1,-1,-1,-1,-1,-1],"split_conditions":[1E0,1.85E2,1E0,8.7E1,5.1E1,2.22E2,1.82E2,1E0,5.1E1,1E0,1E0,1.15E2,5.1E1,6E0,5.1E1,1E0,1E0,1E0,1E0,1E0,2.94E2,8.1E1,2.76E2,1E0,5.1E1,1E0,1E0,6.4E1,1.3255709E1,1E0,1E0,5.1E1,5E1,2E0,7.097769E0,1E0,1E0,1E0,1.37E2,1E1,1E0,1E0,1E0,1E0,2.67E2,8.1E1,8.1E1,5.7E1,3E0,1E0,8.1E1,1E0,2.86E2,1E0,2.6E2,9.963089E0,7.93E1,1E0,1E0,2.266E2,1.4579344E1,-3.446929E0,-2.749734E0,3.5022707E0,4.505834E0,1.9117209E0,-6.1050814E-1,-2.7619166E0,-5.2212715E-1,1.0915083E0,6.9024734E0,-7.8066176E-1,3.26572E0,7.097234E-1,2.6604369E0,1.1698803E0,-1.7009017E0,-2.849231E0,1.3958203E0,1.8150073E0,3.9820645E0,4.0563197E0,7.0844016E0,2.4098482E0,4.0434197E-1,2.467792E0,4.9979444E0,4.6938157E0,6.90031E0,7.9613914E0,1.0761035E1,1.5817825E0,2.6595688E0,5.95946E0,4.307156E0,2.662793E0,5.9671273E0,4.9306216E0,6.5248194E0,4.743336E0,2.4792843E0,7.293124E0,9.572488E0,9.294234E0,6.9663525E0,1.0486982E1,1.3817122E1,1.0007089E1,1.3064237E1,1.2087156E1,1.4985302E1,1.8836114E0,1.0028834E1,1.478168E1,1.8435432E1],"split_indices":[14,0,13,0,2,0,0,12,2,10,10,0,2,5,2,16,13,12,10,11,0,2,0,12,2,10,10,2,0,11,11,2,0,5,0,10,13,12,0,8,12,7,7,11,0,2,2,0,5,12,2,11,0,11,0,0,1,10,2,1,0,0,0,0,0,0,0,0,0,0,0,0,0,0,0,0,0,0,0,0,0,0,0,0,0,0,0,0,0,0,0,0,0,0,0,0,0,0,0,0,0,0,0,0,0,0,0,0,0,0,0,0,0,0,0],"split_type":[0,0,0,0,0,0,0,0,0,0,0,0,0,0,0,0,0,0,0,0,0,0,0,0,0,0,0,0,0,0,0,0,0,0,0,0,0,0,0,0,0,0,0,0,0,0,0,0,0,0,0,0,0,0,0,0,0,0,0,0,0,0,0,0,0,0,0,0,0,0,0,0,0,0,0,0,0,0,0,0,0,0,0,0,0,0,0,0,0,0,0,0,0,0,0,0,0,0,0,0,0,0,0,0,0,0,0,0,0,0,0,0,0,0,0],"sum_hessian":[6.3813E4,5.8675E4,5.138E3,2.9301E4,2.9374E4,4.326E3,8.12E2,1.2932E4,1.6369E4,1.4892E4,1.4482E4,2.553E3,1.773E3,3.91E2,4.21E2,1.2535E4,3.97E2,8.521E3,7.848E3,1.3078E4,1.814E3,1.2726E4,1.756E3,1.272E3,1.281E3,8.9E2,8.83E2,3.41E2,5E1,2.12E2,2.09E2,1.2445E4,9E1,3.38E2,5.9E1,8.279E3,2.42E2,6.825E3,1.023E3,8.019E3,5.059E3,1.094E3,7.2E2,7.756E3,4.97E3,9.03E2,8.53E2,1.129E3,1.43E2,6.49E2,6.32E2,7.72E2,1.18E2,7.83E2,1E2,2.33E2,1.08E2,1.42E2,7E1,1.38E2,7.1E1,6.376E3,6.069E3,5.7E1,3.3E1,1.13E2,2.25E2,7.291E3,9.88E2,2.12E2,3E1,6.595E3,2.3E2,5.16E2,5.07E2,2.51E3,5.509E3,4.898E3,1.61E2,9.23E2,1.71E2,6.05E2,1.15E2,4.811E3,2.945E3,2.375E3,2.595E3,5.5E2,3.53E2,5.49E2,3.04E2,5.15E2,6.14E2,3.6E1,1.07E2,5.74E2,7.5E1,3.97E2,2.35E2,5E2,2.72E2,5.2E1,6.6E1,5E2,2.83E2,2.9E1,7.1E1,5.3E1,5.5E1,1.08E2,3.4E1,1E0,6.9E1,4E1,9.8E1],"tree_param":{"num_deleted":"0","num_feature":"21","num_nodes":"115","size_leaf_vector":"1"}},{"base_weights":[-3.1099994E-2,-6.103377E0,6.878376E1,-2.4239178E1,1.1162436E1,5.4962368E1,1.4447437E2,-2.856331E1,3.2891136E1,-1.1424481E1,3.461357E1,3.80679E1,7.657771E1,1.0612228E2,1.656412E2,-3.604843E1,-1.8659426E1,2.9230782E1,8.868243E1,-1.7873903E1,3.4873352E1,2.8123863E1,8.072982E1,3.2677578E1,8.16865E1,5.321099E1,1.0037852E2,8.974107E1,1.2736746E2,1.4168542E2,1.8668742E2,-4.1070705E1,-3.1205599E1,-3.0664549E1,-5.6821785E0,2.5620562E1,6.442845E1,7.631463E1,1.0330152E2,-2.2359756E1,3.9367542E1,3.0425035E1,8.7889915E1,2.3588379E1,8.673379E1,5.6441807E1,9.83071E1,2.859221E1,6.3864716E1,6.681608E1,9.112938E1,4.4814316E1,1.0338946E2,9.399505E1,1.1960965E1,8.2621666E1,1.2658967E2,1.0338028E2,1.4405232E2,1.0074186E1,1.2039873E1,1.3139243E1,1.6338629E1,-3.338015E0,-9.199478E-1,-3.0430532E0,-1.9185793E0,-2.7192185E0,-4.95946E-1,-7.5701505E-1,1.4968224E0,1.772232E0,3.9380841E0,3.51435E0,6.4536557E0,6.1487436E0,1.5275124E0,5.2474413E0,9.188773E0,-2.103291E0,1.5208595E-1,2.6049454E0,6.66226E0,1.1884402E0,3.3846884E0,5.697179E0,9.110541E0,9.309075E-1,2.9070363E0,6.3521576E0,1.01571455E1,4.165161E0,8.985629E0,7.4832964E0,1.2311364E1,1.3495442E0,2.9948199E0,4.211042E0,6.543493E0,6.0340118E-2,5.393662E0,6.804309E0,8.815988E0,3.1065924E0,7.474088E0,7.68905E0,1.1542931E1,6.964887E0,1.1331682E1,6.7900076E0,5.08532E0,1.9650879E0,1.0385382E1,5.5976744E0,8.680579E0,8.30334E0,1.2047407E1],"categories":[],"categories_nodes":[],"categories_segments":[],"categories_sizes":[],"default_left":[0,0,0,0,0,0,0,0,0,0,0,0,0,0,0,0,0,0,0,0,0,0,0,0,0,0,0,0,0,0,0,0,0,0,0,0,0,0,0,0,0,0,0,0,0,0,0,0,0,0,0,0,0,0,0,0,0,0,0,0,0,0,0,0,0,0,0,0,0,0,0,0,0,0,0,0,0,0,0,0,0,0,0,0,0,0,0,0,0,0,0,0,0,0,0,0,0,0,0,0,0,0,0,0,0,0,0,0,0,0,0,0,0,0,0,0,0],"id":1,"left_children":[1,3,5,7,9,11,13,15,17,19,21,23,25,27,29,31,33,35,37,39,41,43,45,47,49,51,53,55,57,59,61,63,65,67,69,71,73,75,77,79,81,83,85,87,89,91,93,95,97,99,101,103,105,107,-1,109,111,113,115,-1,-1,-1,-1,-1,-1,-1,-1,-1,-1,-1,-1,-1,-1,-1,-1,-1,-1,-1,-1,-1,-1,-1,-1,-1,-1,-1,-1,-1,-1,-1,-1,-1,-1,-1,-1,-1,-1,-1,-1,-1,-1,-1,-1,-1,-1,-1,-1,-1,-1,-1,-1,-1,-1,-1,-1,-1,-1],"loss_changes":[2.67871E7,1.8445782E7,5.429942E6,7.09837E6,1.5985346E7,1.602779E6,6.33481E5,1.979312E6,4.10332E5,4.5909125E6,4.428882E6,5.78073E5,1.066909E6,8.880025E4,2.332E5,3.68682E5,1.7912945E6,2.3965788E5,1.45365625E4,3.4658265E6,4.4069475E5,3.44862E6,7.74001E5,2.7847825E5,3.1964625E4,4.061655E5,2.85162E5,3.3089375E4,3.4335375E4,1.50725E4,7.3188E4,1.43979E5,3.814825E5,4.857735E5,5.098545E5,1.4002888E5,5.5055562E4,7.4528125E2,1.6001375E4,1.193617E6,2.9045438E5,3.20569E5,5.4735625E4,1.8357955E6,2.64825E5,1.82247E5,2.65882E5,2.0120638E5,4.6820312E4,4.3034375E3,9.51275E3,2.3976425E5,2.7496E4,2.67526E5,0E0,7.0225E2,5.04375E3,1.65725E3,2.80175E3,0E0,0E0,0E0,0E0,0E0,0E0,0E0,0E0,0E0,0E0,0E0,0E0,0E0,0E0,0E0,0E0,0E0,0E0,0E0,0E0,0E0,0E0,0E0,0E0,0E0,0E0,0E0,0E0,0E0,0E0,0E0,0E0,0E0,0E0,0E0,0E0,0E0,0E0,0E0,0E0,0E0,0E0,0E0,0E0,0E0,0E0,0E0,0E0,0E0,0E0,0E0,0E0,0E0,0E0,0E0,0E0,0E0,0E0],"parents":[2147483647,0,0,1,1,2,2,3,3,4,4,5,5,6,6,7,7,8,8,9,9,10,10,11,11,12,12,13,13,14,14,15,15,16,16,17,17,18,18,19,19,20,20,21,21,22,22,23,23,24,24,25,25,26,26,27,27,28,28,29,29,30,30,31,31,32,32,33,33,34,34,35,35,36,36,37,37,38,38,39,39,40,40,41,41,42,42,43,43,44,44,45,45,46,46,47,47,48,48,49,49,50,50,51,51,52,52,53,53,55,55,56,56,57,57,58,58],"right_children":[2,4,6,8,10,12,14,16,18,20,22,24,26,28,30,32,34,36,38,40,42,44,46,48,50,52,54,56,58,60,62,64,66,68,70,72,74,76,78,80,82,84,86,88,90,92,94,96,98,100,102,104,106,108,-1,110,112,114,116,-1,-1,-1,-1,-1,-1,-1,-1,-1,-1,-1,-1,-1,-1,-1,-1,-1,-1,-1,-1,-1,-1,-1,-1,-1,-1,-1,-1,-1,-1,-1,-1,-1,-1,-1,-1,-1,-1,-1,-1,-1,-1,-1,-1,-1,-1,-1,-1,-1,-1,-1,-1,-1,-1,-1,-1,-1,-1],"split_conditions":[1E0,1.81E2,1E0,1E0,5.1E1,2.09E2,1E0,1.08E2,1E0,1E0,1E0,1E0,5.1E1,5.4E1,1.79E2,5.7E1,5.1E1,1E0,5.4E1,1E0,1E0,1E0,2.54E2,1E0,9.1E1,1E0,1E0,1E0,1.59E2,7.1E1,5.1E1,1E0,5.1E1,1E0,1E0,1E0,8E1,1.75E2,4.9E1,1E0,1E0,2.61E2,2.95E2,2.73E2,1E0,1E0,1E0,9.6E1,1.36E2,1.2E1,7.7E1,1E0,1E0,1E0,1.1960965E1,2.2E1,2.6E1,4E0,5E0,1.0074186E1,1.2039873E1,1.3139243E1,1.6338629E1,-3.338015E0,-9.199478E-1,-3.0430532E0,-1.9185793E0,-2.7192185E0,-4.95946E-1,-7.5701505E-1,1.4968224E0,1.772232E0,3.9380841E0,3.51435E0,6.4536557E0,6.1487436E0,1.5275124E0,5.2474413E0,9.188773E0,-2.103291E0,1.5208595E-1,2.6049454E0,6.66226E0,1.1884402E0,3.3846884E0,5.697179E0,9.110541E0,9.309075E-1,2.9070363E0,6.3521576E0,1.01571455E1,4.165161E0,8.985629E0,7.4832964E0,1.2311364E1,1.3495442E0,2.9948199E0,4.211042E0,6.543493E0,6.0340118E-2,5.393662E0,6.804309E0,8.815988E0,3.1065924E0,7.474088E0,7.68905E0,1.1542931E1,6.964887E0,1.1331682E1,6.7900076E0,5.08532E0,1.9650879E0,1.0385382E1,5.5976744E0,8.680579E0,8.30334E0,1.2047407E1],"split_indices":[14,0,13,15,2,0,15,0,13,10,10,15,2,2,0,0,2,16,2,15,15,15,0,12,0,10,15,10,0,0,2,12,2,10,10,12,0,0,0,7,7,0,0,0,7,15,15,0,0,0,2,15,15,10,0,8,0,8,8,0,0,0,0,0,0,0,0,0,0,0,0,0,0,0,0,0,0,0,0,0,0,0,0,0,0,0,0,0,0,0,0,0,0,0,0,0,0,0,0,0,0,0,0,0,0,0,0,0,0,0,0,0,0,0,0,0,0],"split_type":[0,0,0,0,0,0,0,0,0,0,0,0,0,0,0,0,0,0,0,0,0,0,0,0,0,0,0,0,0,0,0,0,0,0,0,0,0,0,0,0,0,0,0,0,0,0,0,0,0,0,0,0,0,0,0,0,0,0,0,0,0,0,0,0,0,0,0,0,0,0,0,0,0,0,0,0,0,0,0,0,0,0,0,0,0,0,0,0,0,0,0,0,0,0,0,0,0,0,0,0,0,0,0,0,0,0,0,0,0,0,0,0,0,0,0,0,0],"sum_hessian":[6.4103E4,5.8906E4,5.197E3,2.8729E4,3.0177E4,4.396E3,8.01E2,2.6708E4,2.021E3,1.5372E4,1.4805E4,2.469E3,1.927E3,2.87E2,5.14E2,1.521E4,1.1498E4,1.898E3,1.23E2,1.3493E4,1.879E3,1.298E4,1.825E3,2.199E3,2.7E2,9.74E2,9.53E2,1.65E2,1.22E2,2.44E2,2.7E2,7.463E3,7.747E3,5.972E3,5.526E3,1.723E3,1.75E2,7E1,5.3E1,1.2513E4,9.8E2,1.735E3,1.44E2,1.2049E4,9.31E2,7.68E2,1.057E3,1.946E3,2.53E2,1.08E2,1.62E2,8.36E2,1.38E2,8.46E2,1.07E2,1.41E2,2.4E1,5.3E1,6.9E1,9.3E1,1.51E2,1.23E2,1.47E2,7.301E3,1.62E2,3.979E3,3.768E3,5.257E3,7.15E2,4.785E3,7.41E2,1.504E3,2.19E2,7.9E1,9.6E1,6.9E1,1E0,1.4E1,3.9E1,1.0768E4,1.745E3,8.5E2,1.3E2,7.52E2,9.83E2,9E1,5.4E1,6.22E3,5.829E3,7.9E2,1.41E2,7.14E2,5.4E1,9.76E2,8.1E1,8.38E2,1.108E3,1.58E2,9.5E1,1E0,1.07E2,1.27E2,3.5E1,7.46E2,9E1,1.2E2,1.8E1,7.41E2,1.05E2,1.23E2,1.8E1,1E0,2.3E1,9E0,4.4E1,1.2E1,5.7E1],"tree_param":{"num_deleted":"0","num_feature":"21","num_nodes":"117","size_leaf_vector":"1"}},{"base_weights":[-5.611297E-2,-5.622125E0,6.1778996E1,-2.213061E1,9.868122E0,4.8780724E1,1.3895299E2,-2.3674673E1,2.701076E1,-1.0721031E1,3.1250847E1,3.354389E1,6.61897E1,1.1722687E2,1.6232674E2,-3.1662466E1,-1.5478365E1,1.5573005E1,8.521754E1,-1.6131231E1,2.6158176E1,2.5555677E1,7.209971E1,2.2201496E1,4.1306484E1,4.5515434E1,8.857588E1,1.0833056E2,1.2978307E2,1.3684497E2,1.8276717E2,-3.587241E1,-2.724325E1,-2.6554314E1,-3.6680622E0,-1.3896546E-2,2.4767939E1,7.467949E1,9.558718E1,-7.475196E0,-2.9899773E1,1.1631035E1,3.2959118E1,1.6143766E1,4.0411243E1,5.3858612E1,8.579897E1,1.9929707E1,4.3474804E1,2.9649097E1,5.466971E1,5.7890114E1,2.2043228E1,8.306784E1,1.2844858E2,1.0001401E1,1.012418E2,9.468457E0,1.1422766E1,1.27829254E2,1.4281982E1,1.24109125E1,1.9148596E2,-2.8796015E0,2.7298236E0,-2.6375852E0,-1.6447488E0,-2.359028E0,-5.1848125E-1,-5.541369E-1,1.3875242E0,-6.454167E-1,7.857945E-1,5.5658406E-1,2.8106656E0,5.5367203E0,7.8105664E0,4.7325273E0,7.9566917E0,-1.5062698E0,8.8935804E-1,-2.5175571E0,1.4023834E0,7.59779E-1,5.037953E0,2.295282E0,4.7501764E0,6.387867E-1,2.5842617E0,4.0320334E0,2.001685E0,4.1510773E0,9.564762E0,5.9058194E0,8.271967E0,1.3573958E0,2.9945476E0,3.0699549E0,4.92705E0,2.9205687E0,1.2457534E0,4.090237E0,7.8578644E0,4.2657084E0,8.067612E0,1.2688173E0,4.6114845E0,6.3295093E0,1.0002437E1,8.809932E0,1.2396538E1,7.5941086E0,1.0168673E1,9.204E0,1.1684067E1,1.605468E1,1.2949236E1],"categories":[],"categories_nodes":[],"categories_segments":[],"categories_sizes":[],"default_left":[0,0,0,0,0,0,0,0,0,0,0,0,0,0,0,0,0,0,0,0,0,0,0,0,0,0,0,0,0,0,0,0,0,0,0,0,0,0,0,0,0,0,0,0,0,0,0,0,0,0,0,0,0,0,0,0,0,0,0,0,0,0,0,0,0,0,0,0,0,0,0,0,0,0,0,0,0,0,0,0,0,0,0,0,0,0,0,0,0,0,0,0,0,0,0,0,0,0,0,0,0,0,0,0,0,0,0,0,0,0,0,0,0,0,0,0,0],"id":2,"left_children":[1,3,5,7,9,11,13,15,17,19,21,23,25,27,29,31,33,35,37,39,41,43,45,47,49,51,53,55,57,59,61,63,65,67,69,71,73,75,77,79,81,83,85,87,89,91,93,95,97,99,101,103,105,107,109,-1,111,-1,-1,113,-1,-1,115,-1,-1,-1,-1,-1,-1,-1,-1,-1,-1,-1,-1,-1,-1,-1,-1,-1,-1,-1,-1,-1,-1,-1,-1,-1,-1,-1,-1,-1,-1,-1,-1,-1,-1,-1,-1,-1,-1,-1,-1,-1,-1,-1,-1,-1,-1,-1,-1,-1,-1,-1,-1,-1,-1],"loss_changes":[2.2018252E7,1.5008712E7,5.29275E6,2.156467E6,1.3331172E7,1.19754E6,3.67423E5,1.803022E6,5.7521656E5,3.0784772E6,3.453809E6,2.11627E5,9.72514E5,3.0399E4,1.64581E5,2.58557E5,1.778661E6,1.03907766E5,8.37875E3,1.6032375E6,1.9464425E5,1.822311E6,4.49428E5,4.6640438E4,2.214565E5,3.179405E5,2.11586E5,1.56145E4,6.8725E3,3.955775E4,1.82345E4,6.2512E4,2.5998E5,4.130105E5,4.50797E5,2.1468629E4,8.393956E4,2.6600938E3,3.7070625E3,1.744154E6,3.87169E5,6.8532016E4,1.4983912E5,1.0522552E6,7.76024E5,9.50185E4,2.107445E5,4.5507688E4,6.3207344E3,7.347881E4,9.771225E4,1.357275E5,8.295042E4,1.379205E5,4.171075E4,0E0,1.6195125E4,0E0,0E0,1.5797E4,0E0,0E0,7.564E3,0E0,0E0,0E0,0E0,0E0,0E0,0E0,0E0,0E0,0E0,0E0,0E0,0E0,0E0,0E0,0E0,0E0,0E0,0E0,0E0,0E0,0E0,0E0,0E0,0E0,0E0,0E0,0E0,0E0,0E0,0E0,0E0,0E0,0E0,0E0,0E0,0E0,0E0,0E0,0E0,0E0,0E0,0E0,0E0,0E0,0E0,0E0,0E0,0E0,0E0,0E0,0E0,0E0,0E0],"parents":[2147483647,0,0,1,1,2,2,3,3,4,4,5,5,6,6,7,7,8,8,9,9,10,10,11,11,12,12,13,13,14,14,15,15,16,16,17,17,18,18,19,19,20,20,21,21,22,22,23,23,24,24,25,25,26,26,27,27,28,28,29,29,30,30,31,31,32,32,33,33,34,34,35,35,36,36,37,37,38,38,39,39,40,40,41,41,42,42,43,43,44,44,45,45,46,46,47,47,48,48,49,49,50,50,51,51,52,52,53,53,54,54,56,56,59,59,62,62],"right_children":[2,4,6,8,10,12,14,16,18,20,22,24,26,28,30,32,34,36,38,40,42,44,46,48,50,52,54,56,58,60,62,64,66,68,70,72,74,76,78,80,82,84,86,88,90,92,94,96,98,100,102,104,106,108,110,-1,112,-1,-1,114,-1,-1,116,-1,-1,-1,-1,-1,-1,-1,-1,-1,-1,-1,-1,-1,-1,-1,-1,-1,-1,-1,-1,-1,-1,-1,-1,-1,-1,-1,-1,-1,-1,-1,-1,-1,-1,-1,-1,-1,-1,-1,-1,-1,-1,-1,-1,-1,-1,-1,-1,-1,-1,-1,-1,-1,-1],"split_conditions":[1E0,1.74E2,1E0,1E0,1E0,1.898E2,1.964E2,9.25E1,1E0,1E0,1E0,8.33E1,1E0,1.163E2,1E0,1E0,1E0,4E0,1E0,1E0,2.293E2,1E0,2.517E2,1E0,1E0,1E0,1E0,2E0,1E0,1E0,7E0,1E0,5.38E1,1E0,1E0,1E0,6.83E1,1E0,3.58E1,1.7E1,1E0,1E0,1E0,1.7E1,1E0,1E0,1E0,1E0,6.43E1,1E0,1E0,1E0,1E0,1E0,2.836E2,1.0001401E1,6E0,9.468457E0,1.1422766E1,1.6E1,1.4281982E1,1.24109125E1,2E1,-2.8796015E0,2.7298236E0,-2.6375852E0,-1.6447488E0,-2.359028E0,-5.1848125E-1,-5.541369E-1,1.3875242E0,-6.454167E-1,7.857945E-1,5.5658406E-1,2.8106656E0,5.5367203E0,7.8105664E0,4.7325273E0,7.9566917E0,-1.5062698E0,8.8935804E-1,-2.5175571E0,1.4023834E0,7.59779E-1,5.037953E0,2.295282E0,4.7501764E0,6.387867E-1,2.5842617E0,4.0320334E0,2.001685E0,4.1510773E0,9.564762E0,5.9058194E0,8.271967E0,1.3573958E0,2.9945476E0,3.0699549E0,4.92705E0,2.9205687E0,1.2457534E0,4.090237E0,7.8578644E0,4.2657084E0,8.067612E0,1.2688173E0,4.6114845E0,6.3295093E0,1.0002437E1,8.809932E0,1.2396538E1,7.5941086E0,1.0168673E1,9.204E0,1.1684067E1,1.605468E1,1.2949236E1],"split_indices":[15,1,13,12,3,1,1,1,13,9,9,1,3,1,3,3,3,5,3,11,1,4,1,16,3,11,9,5,3,9,8,16,1,9,9,3,1,9,1,8,12,12,7,8,11,12,4,12,1,11,16,16,7,16,1,0,5,0,0,8,0,0,8,0,0,0,0,0,0,0,0,0,0,0,0,0,0,0,0,0,0,0,0,0,0,0,0,0,0,0,0,0,0,0,0,0,0,0,0,0,0,0,0,0,0,0,0,0,0,0,0,0,0,0,0,0,0],"split_type":[0,0,0,0,0,0,0,0,0,0,0,0,0,0,0,0,0,0,0,0,0,0,0,0,0,0,0,0,0,0,0,0,0,0,0,0,0,0,0,0,0,0,0,0,0,0,0,0,0,0,0,0,0,0,0,0,0,0,0,0,0,0,0,0,0,0,0,0,0,0,0,0,0,0,0,0,0,0,0,0,0,0,0,0,0,0,0,0,0,0,0,0,0,0,0,0,0,0,0,0,0,0,0,0,0,0,0,0,0,0,0,0,0,0,0,0,0],"sum_hessian":[6.3972E4,5.869E4,5.282E3,2.8411E4,3.0279E4,4.522E3,7.6E2,2.7546E4,8.65E2,1.5426E4,1.4853E4,2.413E3,2.109E3,3.97E2,3.63E2,1.3949E4,1.3597E4,7.24E2,1.41E2,1.3453E4,1.973E3,1.3037E4,1.816E3,9.82E2,1.431E3,1.098E3,1.011E3,2.38E2,1.59E2,1.65E2,1.98E2,7.14E3,6.809E3,7.016E3,6.581E3,2.69E2,4.55E2,7.4E1,6.7E1,8.261E3,5.192E3,6.3E2,1.343E3,7.982E3,5.055E3,7.81E2,1.035E3,8.89E2,9.3E1,7.66E2,6.65E2,7.18E2,3.8E2,8.91E2,1.2E2,6.6E1,1.72E2,9E1,6.9E1,1.39E2,2.6E1,5.2E1,1.46E2,7.128E3,1.2E1,3.665E3,3.144E3,6.121E3,8.95E2,5.698E3,8.83E2,1.48E2,1.21E2,1.68E2,2.87E2,6.3E1,1.1E1,8E0,5.9E1,5.129E3,3.132E3,5.026E3,1.66E2,6.06E2,2.4E1,1.158E3,1.85E2,5.305E3,2.677E3,3.064E3,1.991E3,7.6E2,2.1E1,6.19E2,4.16E2,7.62E2,1.27E2,7.5E1,1.8E1,5.14E2,2.52E2,6.17E2,4.8E1,6.51E2,6.7E1,3.25E2,5.5E1,8.17E2,7.4E1,7.4E1,4.6E1,1.42E2,3E1,8.6E1,5.3E1,1.07E2,3.9E1],"tree_param":{"num_deleted":"0","num_feature":"21","num_nodes":"117","size_leaf_vector":"1"}},{"base_weights":[3.7839856E-2,-5.3252654E0,6.1837337E1,-1.8060349E1,1.3282493E1,4.9904404E1,1.2524588E2,-2.1777344E1,3.0562645E1,-7.299452E0,3.4538013E1,3.497227E1,6.803091E1,9.36234E1,1.433095E2,-3.030167E1,-1.2964595E1,2.7519808E1,8.018337E1,-1.3557139E1,3.7185055E1,2.8140139E1,7.9755516E1,3.0454311E1,7.251346E1,4.798079E1,8.889498E1,7.1972336E1,1.0579358E2,1.23602875E2,1.6386856E2,-3.4911278E1,-2.593885E1,-2.4878584E1,-3.757191E-1,2.4139908E1,5.984843E1,4.9311705E0,9.107276E1,-1.746465E1,3.469973E1,3.32815E1,8.480402E1,2.449086E1,7.77842E1,6.597514E1,9.808987E1,2.2594633E1,4.079389E1,6.251058E1,7.918774E1,4.124647E1,9.084297E1,8.2860306E1,1.3291438E2,7.609401E1,6.0966057E1,8.51899E1,1.2923993E2,1.19548935E2,1.4860344E2,1.1126935E1,1.8230121E2,-3.0156732E0,-2.5972664E0,-2.5553732E0,-1.5769498E0,-2.2503424E0,6.0331738E-3,-3.4250262E-1,2.0145154E0,1.2188032E0,2.6587188E0,2.9860485E0,5.9354324E0,5.766066E0,8.051286E0,-7.761865E-1,-2.4046428E0,2.235006E0,6.074308E0,1.9520559E0,3.6173222E0,6.1412125E0,1.0893365E1,1.1966369E0,3.1427922E0,5.6507854E0,9.237693E0,4.9761267E0,9.169335E0,6.985153E0,9.409471E0,1.2616192E0,2.1965137E0,2.1796167E0,4.406233E0,3.630676E-3,5.048404E0,5.714454E0,7.437036E0,2.8922243E0,6.367744E0,6.784692E0,1.0190768E1,6.217628E0,1.0024099E1,8.648492E0,1.177339E1,6.310798E0,4.1944447E0,5.1094327E0,2.9036627E0,7.6102557E0,5.621326E0,1.0994733E1,8.187606E0,9.012212E0,1.03318405E1,3.329968E0,1.2333006E1,1.5592394E1,1.2597285E1],"categories":[],"categories_nodes":[],"categories_segments":[],"categories_sizes":[],"default_left":[0,0,0,0,0,0,0,0,0,0,0,0,0,0,0,0,0,0,0,0,0,0,0,0,0,0,0,0,0,0,0,0,0,0,0,0,0,0,0,0,0,0,0,0,0,0,0,0,0,0,0,0,0,0,0,0,0,0,0,0,0,0,0,0,0,0,0,0,0,0,0,0,0,0,0,0,0,0,0,0,0,0,0,0,0,0,0,0,0,0,0,0,0,0,0,0,0,0,0,0,0,0,0,0,0,0,0,0,0,0,0,0,0,0,0,0,0,0,0,0,0,0,0],"id":3,"left_children":[1,3,5,7,9,11,13,15,17,19,21,23,25,27,29,31,33,35,37,39,41,43,45,47,49,51,53,55,57,59,61,63,65,67,69,71,73,-1,75,77,79,81,83,85,87,89,91,93,95,97,99,101,103,105,107,109,111,113,115,117,119,-1,121,-1,-1,-1,-1,-1,-1,-1,-1,-1,-1,-1,-1,-1,-1,-1,-1,-1,-1,-1,-1,-1,-1,-1,-1,-1,-1,-1,-1,-1,-1,-1,-1,-1,-1,-1,-1,-1,-1,-1,-1,-1,-1,-1,-1,-1,-1,-1,-1,-1,-1,-1,-1,-1,-1,-1,-1,-1,-1,-1,-1],"loss_changes":[2.1217942E7,1.3959274E7,3.861744E6,6.321206E6,1.0471335E7,1.162573E6,4.48697E5,2.440269E6,3.72847E5,3.385763E6,3.404214E6,3.9840975E5,8.08544E5,7.064475E4,1.87588E5,3.31205E5,2.3961302E6,2.5445988E5,2.326225E4,2.0110779E6,2.7600212E5,1.8671745E6,3.62151E5,1.70549E5,1.1940625E4,2.8288E5,2.41613E5,3.509375E2,7.980925E4,9.1935E3,8.79295E4,5.3438E4,3.166725E5,6.658175E5,7.755715E5,1.7133638E5,6.8631E4,0E0,8.7419375E3,9.639525E5,2.2063806E5,1.4601438E5,3.6204875E4,1.3549935E6,1.82067E5,1.4632E5,1.210375E5,3.9414688E4,1.7461138E5,3.9333125E3,9.1741875E3,1.6511812E5,1.874425E4,1.732845E5,2.4046E4,8.83375E2,1.875E2,8.591875E3,4.88725E3,9.4175E2,1.32084375E4,0E0,1.28185E4,0E0,0E0,0E0,0E0,0E0,0E0,0E0,0E0,0E0,0E0,0E0,0E0,0E0,0E0,0E0,0E0,0E0,0E0,0E0,0E0,0E0,0E0,0E0,0E0,0E0,0E0,0E0,0E0,0E0,0E0,0E0,0E0,0E0,0E0,0E0,0E0,0E0,0E0,0E0,0E0,0E0,0E0,0E0,0E0,0E0,0E0,0E0,0E0,0E0,0E0,0E0,0E0,0E0,0E0,0E0,0E0,0E0,0E0,0E0,0E0],"parents":[2147483647,0,0,1,1,2,2,3,3,4,4,5,5,6,6,7,7,8,8,9,9,10,10,11,11,12,12,13,13,14,14,15,15,16,16,17,17,18,18,19,19,20,20,21,21,22,22,23,23,24,24,25,25,26,26,27,27,28,28,29,29,30,30,31,31,32,32,33,33,34,34,35,35,36,36,38,38,39,39,40,40,41,41,42,42,43,43,44,44,45,45,46,46,47,47,48,48,49,49,50,50,51,51,52,52,53,53,54,54,55,55,56,56,57,57,58,58,59,59,60,60,62,62],"right_children":[2,4,6,8,10,12,14,16,18,20,22,24,26,28,30,32,34,36,38,40,42,44,46,48,50,52,54,56,58,60,62,64,66,68,70,72,74,-1,76,78,80,82,84,86,88,90,92,94,96,98,100,102,104,106,108,110,112,114,116,118,120,-1,122,-1,-1,-1,-1,-1,-1,-1,-1,-1,-1,-1,-1,-1,-1,-1,-1,-1,-1,-1,-1,-1,-1,-1,-1,-1,-1,-1,-1,-1,-1,-1,-1,-1,-1,-1,-1,-1,-1,-1,-1,-1,-1,-1,-1,-1,-1,-1,-1,-1,-1,-1,-1,-1,-1,-1,-1,-1,-1,-1,-1],"split_conditions":[1E0,2.18E2,1E0,1E0,5.1E1,2.07E2,1E0,1.16E2,1E0,1E0,1E0,1E0,5.1E1,1.286E2,1.94E2,6.1E1,5.1E1,1E0,8.19E1,1E0,1E0,1E0,2.98E2,1.23E2,9.1E1,1E0,1E0,1E0,4.9E1,1E0,5.1E1,3.4E1,5.1E1,1E0,1E0,1.16E2,8.9E1,4.9311705E0,4.9E1,1E0,1E0,4E0,1E0,8.1E1,1E0,1E0,8.1E1,5.7E1,5.1E1,1.2E1,6.2E1,1E0,1E0,1E0,2.61E2,8.4E1,1.163E2,1E0,1E0,5.5E1,1.45E1,1.1126935E1,1E0,-3.0156732E0,-2.5972664E0,-2.5553732E0,-1.5769498E0,-2.2503424E0,6.0331738E-3,-3.4250262E-1,2.0145154E0,1.2188032E0,2.6587188E0,2.9860485E0,5.9354324E0,5.766066E0,8.051286E0,-7.761865E-1,-2.4046428E0,2.235006E0,6.074308E0,1.9520559E0,3.6173222E0,6.1412125E0,1.0893365E1,1.1966369E0,3.1427922E0,5.6507854E0,9.237693E0,4.9761267E0,9.169335E0,6.985153E0,9.409471E0,1.2616192E0,2.1965137E0,2.1796167E0,4.406233E0,3.630676E-3,5.048404E0,5.714454E0,7.437036E0,2.8922243E0,6.367744E0,6.784692E0,1.0190768E1,6.217628E0,1.0024099E1,8.648492E0,1.177339E1,6.310798E0,4.1944447E0,5.1094327E0,2.9036627E0,7.6102557E0,5.621326E0,1.0994733E1,8.187606E0,9.012212E0,1.03318405E1,3.329968E0,1.2333006E1,1.5592394E1,1.2597285E1],"split_indices":[14,0,13,15,2,0,15,0,13,10,10,15,2,1,0,0,2,16,1,15,15,15,0,0,0,10,10,11,2,10,2,0,2,10,10,0,0,0,2,11,7,5,16,2,7,15,2,0,2,0,2,15,15,15,0,2,1,11,11,2,1,0,11,0,0,0,0,0,0,0,0,0,0,0,0,0,0,0,0,0,0,0,0,0,0,0,0,0,0,0,0,0,0,0,0,0,0,0,0,0,0,0,0,0,0,0,0,0,0,0,0,0,0,0,0,0,0,0,0,0,0,0,0],"split_type":[0,0,0,0,0,0,0,0,0,0,0,0,0,0,0,0,0,0,0,0,0,0,0,0,0,0,0,0,0,0,0,0,0,0,0,0,0,0,0,0,0,0,0,0,0,0,0,0,0,0,0,0,0,0,0,0,0,0,0,0,0,0,0,0,0,0,0,0,0,0,0,0,0,0,0,0,0,0,0,0,0,0,0,0,0,0,0,0,0,0,0,0,0,0,0,0,0,0,0,0,0,0,0,0,0,0,0,0,0,0,0,0,0,0,0,0,0,0,0,0,0,0,0],"sum_hessian":[6.4016E4,5.8905E4,5.111E3,3.4971E4,2.3934E4,4.303E3,8.08E2,3.2488E4,2.483E3,1.216E4,1.1774E4,2.361E3,1.942E3,2.96E2,5.12E2,1.6513E4,1.5975E4,2.341E3,1.42E2,1.0661E4,1.499E3,1.0316E4,1.458E3,2.109E3,2.52E2,9.92E2,9.5E2,1.09E2,1.87E2,2.65E2,2.47E2,8.026E3,8.487E3,8.207E3,7.768E3,2.121E3,2.2E2,5.5E1,8.7E1,9.863E3,7.98E2,1.387E3,1.12E2,9.611E3,7.05E2,8.35E2,6.23E2,1.2E3,9.09E2,1.05E2,1.47E2,8.59E2,1.33E2,8.38E2,1.12E2,7.5E1,3.4E1,1.02E2,8.5E1,2.33E2,3.2E1,1.09E2,1.38E2,3.746E3,4.28E3,4.319E3,4.168E3,7.261E3,9.46E2,6.739E3,1.029E3,1.073E3,1.048E3,8.7E1,1.33E2,3.2E1,5.5E1,6.103E3,3.76E3,6.87E2,1.11E2,7.97E2,5.9E2,9.9E1,1.3E1,5.846E3,3.765E3,5.95E2,1.1E2,7.77E2,5.8E1,4.05E2,2.18E2,5.01E2,6.99E2,4.68E2,4.41E2,1E0,1.04E2,9.8E1,4.9E1,7.6E2,9.9E1,1.17E2,1.6E1,7.5E2,8.8E1,4.4E1,6.8E1,6.5E1,1E1,2.9E1,5E0,5.8E1,4.4E1,6.2E1,2.3E1,1.43E2,9E1,2E0,3E1,8.7E1,5.1E1],"tree_param":{"num_deleted":"0","num_feature":"21","num_nodes":"123","size_leaf_vector":"1"}},{"base_weights":[-5.1337946E-2,-5.012827E0,5.6631737E1,-1.7505604E1,1.0715867E1,4.236654E1,9.914104E1,-2.0978884E1,2.7176071E1,-7.90396E0,2.9995073E1,3.0199091E1,5.9207832E1,7.756962E1,1.2657639E2,-2.794564E1,-1.3029958E1,2.2013748E1,5.1124023E1,-1.3363577E1,3.1912823E1,2.4266607E1,7.064422E1,2.6053091E1,6.2998997E1,4.1125244E1,7.834372E1,5.8977314E1,9.296121E1,1.09995575E2,1.4254071E2,-3.1769949E1,-2.3651016E1,-2.338537E1,-2.0625467E0,1.7978758E1,4.2808567E1,4.0986668E1,7.1469025E1,-1.6895275E1,3.151423E1,2.8507097E1,7.520753E1,2.0774454E1,7.119293E1,5.7169666E1,8.692611E1,1.713058E1,3.4564766E1,5.1219585E1,7.020921E1,3.5518654E1,7.8090935E1,7.318525E1,1.1640499E2,4.8882313E1,7.3166565E1,7.18359E1,1.1642617E2,1.0170866E2,1.20721275E2,1.2243391E2,1.5805487E2,-2.5834856E0,-5.2691734E-1,-2.060611E0,-6.743173E-1,-2.11623E0,-7.856618E-2,-4.3103617E-1,1.6227996E0,7.826907E-1,2.1141384E0,2.2142475E0,4.651966E0,2.9594605E0,5.599821E0,4.239269E0,6.1061816E0,-2.0062823E0,-4.680631E-1,1.9958748E0,5.643444E0,1.6097955E0,3.3563967E0,4.277568E0,6.9823675E0,2.358482E0,5.248146E-1,5.3514996E0,1.048652E1,4.2850733E0,7.9587E0,6.570684E0,1.1099161E1,1.1750041E0,2.8811417E0,1.6456316E0,3.4683123E0,2.995002E0,4.4492335E0,4.75198E0,6.201478E0,2.4125462E0,5.808174E0,5.7746005E0,9.042233E0,5.486169E0,9.062705E0,8.465936E0,1.0859338E1,3.4071639E0,4.7013097E0,5.1364207E0,6.6024933E0,6.5654535E0,3.9671032E0,1.0093333E1,7.324904E0,6.3220053E0,8.341979E0,8.648532E0,1.0998182E1,9.330286E0,1.2140326E1,1.3504922E1,1.109413E1],"categories":[],"categories_nodes":[],"categories_segments":[],"categories_sizes":[],"default_left":[0,0,0,0,0,0,0,0,0,0,0,0,0,0,0,0,0,0,0,0,0,0,0,0,0,0,0,0,0,0,0,0,0,0,0,0,0,0,0,0,0,0,0,0,0,0,0,0,0,0,0,0,0,0,0,0,0,0,0,0,0,0,0,0,0,0,0,0,0,0,0,0,0,0,0,0,0,0,0,0,0,0,0,0,0,0,0,0,0,0,0,0,0,0,0,0,0,0,0,0,0,0,0,0,0,0,0,0,0,0,0,0,0,0,0,0,0,0,0,0,0,0,0,0,0,0,0],"id":4,"left_children":[1,3,5,7,9,11,13,15,17,19,21,23,25,27,29,31,33,35,37,39,41,43,45,47,49,51,53,55,57,59,61,63,65,67,69,71,73,75,77,79,81,83,85,87,89,91,93,95,97,99,101,103,105,107,109,111,113,115,117,119,121,123,125,-1,-1,-1,-1,-1,-1,-1,-1,-1,-1,-1,-1,-1,-1,-1,-1,-1,-1,-1,-1,-1,-1,-1,-1,-1,-1,-1,-1,-1,-1,-1,-1,-1,-1,-1,-1,-1,-1,-1,-1,-1,-1,-1,-1,-1,-1,-1,-1,-1,-1,-1,-1,-1,-1,-1,-1,-1,-1,-1,-1,-1,-1,-1,-1],"loss_changes":[1.8005632E7,1.1568049E7,3.120597E6,5.092575E6,9.355497E6,7.89186E5,7.55995E5,1.685625E6,2.9149988E5,2.8825085E6,2.979791E6,3.033805E5,5.56649E5,2.0256E5,1.34672E5,2.65711E5,1.615174E6,1.6276494E5,8.3487125E4,1.848582E6,2.336285E5,1.8378425E6,3.41888E5,1.5076738E5,1.7721812E4,1.70074E5,1.45606E5,4.397925E4,1.879355E5,1.287525E4,6.9864E4,1.12915E5,2.44968E5,5.026765E5,5.134748E5,1.1286681E5,7.173944E4,3.0081188E4,8.3438125E3,9.7685975E5,2.1631344E5,1.6648512E5,2.5774125E4,1.2928255E6,1.9128725E5,1.2712425E5,1.65904E5,4.4451094E4,1.24443625E5,3.9156875E3,7.4838125E3,1.4216494E5,1.4341375E4,1.2046825E5,4.458375E3,9.7501875E3,6.1140625E3,4.3962E4,3.34965E4,1.422125E3,1.00795E4,4.2585E3,9.52425E3,0E0,0E0,0E0,0E0,0E0,0E0,0E0,0E0,0E0,0E0,0E0,0E0,0E0,0E0,0E0,0E0,0E0,0E0,0E0,0E0,0E0,0E0,0E0,0E0,0E0,0E0,0E0,0E0,0E0,0E0,0E0,0E0,0E0,0E0,0E0,0E0,0E0,0E0,0E0,0E0,0E0,0E0,0E0,0E0,0E0,0E0,0E0,0E0,0E0,0E0,0E0,0E0,0E0,0E0,0E0,0E0,0E0,0E0,0E0,0E0,0E0,0E0,0E0,0E0],"parents":[2147483647,0,0,1,1,2,2,3,3,4,4,5,5,6,6,7,7,8,8,9,9,10,10,11,11,12,12,13,13,14,14,15,15,16,16,17,17,18,18,19,19,20,20,21,21,22,22,23,23,24,24,25,25,26,26,27,27,28,28,29,29,30,30,31,31,32,32,33,33,34,34,35,35,36,36,37,37,38,38,39,39,40,40,41,41,42,42,43,43,44,44,45,45,46,46,47,47,48,48,49,49,50,50,51,51,52,52,53,53,54,54,55,55,56,56,57,57,58,58,59,59,60,60,61,61,62,62],"right_children":[2,4,6,8,10,12,14,16,18,20,22,24,26,28,30,32,34,36,38,40,42,44,46,48,50,52,54,56,58,60,62,64,66,68,70,72,74,76,78,80,82,84,86,88,90,92,94,96,98,100,102,104,106,108,110,112,114,116,118,120,122,124,126,-1,-1,-1,-1,-1,-1,-1,-1,-1,-1,-1,-1,-1,-1,-1,-1,-1,-1,-1,-1,-1,-1,-1,-1,-1,-1,-1,-1,-1,-1,-1,-1,-1,-1,-1,-1,-1,-1,-1,-1,-1,-1,-1,-1,-1,-1,-1,-1,-1,-1,-1,-1,-1,-1,-1,-1,-1,-1,-1,-1,-1,-1,-1,-1],"split_conditions":[1E0,2.05E2,1E0,1E0,5.1E1,2.18E2,1E0,1.14E2,1E0,1E0,1E0,1E0,5.1E1,1.71E2,1.94E2,6.4E1,5.1E1,1E0,1E0,1E0,1E0,1E0,2.9E2,5E1,8.6E1,1E0,1E0,1E0,5.2E1,1.1E2,5E1,1E0,1E0,1E0,1E0,5.1E1,1.05E2,1E0,5.3E1,4E0,1E0,3.05E2,2.65E2,1E0,1E0,1E0,1E0,1E0,9E1,2.91E1,4.5E1,1E0,1E0,1E0,8.1E1,1.14E2,1.006E2,1E0,1E0,1E0,5.1E1,1E0,1E0,-2.5834856E0,-5.2691734E-1,-2.060611E0,-6.743173E-1,-2.11623E0,-7.856618E-2,-4.3103617E-1,1.6227996E0,7.826907E-1,2.1141384E0,2.2142475E0,4.651966E0,2.9594605E0,5.599821E0,4.239269E0,6.1061816E0,-2.0062823E0,-4.680631E-1,1.9958748E0,5.643444E0,1.6097955E0,3.3563967E0,4.277568E0,6.9823675E0,2.358482E0,5.248146E-1,5.3514996E0,1.048652E1,4.2850733E0,7.9587E0,6.570684E0,1.1099161E1,1.1750041E0,2.8811417E0,1.6456316E0,3.4683123E0,2.995002E0,4.4492335E0,4.75198E0,6.201478E0,2.4125462E0,5.808174E0,5.7746005E0,9.042233E0,5.486169E0,9.062705E0,8.465936E0,1.0859338E1,3.4071639E0,4.7013097E0,5.1364207E0,6.6024933E0,6.5654535E0,3.9671032E0,1.0093333E1,7.324904E0,6.3220053E0,8.341979E0,8.648532E0,1.0998182E1,9.330286E0,1.2140326E1,1.3504922E1,1.109413E1],"split_indices":[14,0,12,15,2,0,15,0,12,10,10,15,2,0,0,0,2,7,13,15,15,15,0,2,1,10,10,13,2,0,2,12,10,10,10,2,0,10,0,5,7,0,0,11,13,15,15,10,0,1,2,15,15,15,2,0,1,11,11,13,2,10,11,0,0,0,0,0,0,0,0,0,0,0,0,0,0,0,0,0,0,0,0,0,0,0,0,0,0,0,0,0,0,0,0,0,0,0,0,0,0,0,0,0,0,0,0,0,0,0,0,0,0,0,0,0,0,0,0,0,0,0,0,0,0,0,0],"split_type":[0,0,0,0,0,0,0,0,0,0,0,0,0,0,0,0,0,0,0,0,0,0,0,0,0,0,0,0,0,0,0,0,0,0,0,0,0,0,0,0,0,0,0,0,0,0,0,0,0,0,0,0,0,0,0,0,0,0,0,0,0,0,0,0,0,0,0,0,0,0,0,0,0,0,0,0,0,0,0,0,0,0,0,0,0,0,0,0,0,0,0,0,0,0,0,0,0,0,0,0,0,0,0,0,0,0,0,0,0,0,0,0,0,0,0,0,0,0,0,0,0,0,0,0,0,0,0],"sum_hessian":[6.4022E4,5.887E4,5.152E3,3.281E4,2.606E4,3.859E3,1.293E3,3.0444E4,2.366E3,1.3257E4,1.2803E4,2.242E3,1.617E3,7.26E2,5.67E2,1.6223E4,1.4221E4,1.948E3,4.18E2,1.1659E4,1.598E3,1.1223E4,1.58E3,1.992E3,2.5E2,8.33E2,7.84E2,3.31E2,3.95E2,2.82E2,2.85E2,8.578E3,7.645E3,7.314E3,6.907E3,1.633E3,3.15E2,2.81E2,1.37E2,1.0809E4,8.5E2,1.483E3,1.15E2,1.0447E4,7.76E2,8.67E2,7.13E2,9.74E2,1.018E3,9.8E1,1.52E2,7.25E2,1.08E2,6.93E2,9.1E1,1.96E2,1.35E2,2.1E2,1.85E2,1.65E2,1.17E2,1.28E2,1.57E2,8.403E3,1.75E2,6.715E3,9.3E2,6.433E3,8.81E2,6.013E3,8.94E2,8.3E2,8.03E2,1.6E2,1.55E2,2.49E2,3.2E1,3.1E1,1.06E2,6.208E3,4.601E3,7.29E2,1.21E2,9.15E2,5.68E2,4.3E1,7.2E1,6.478E3,3.969E3,7.26E2,5E1,8.01E2,6.6E1,6.55E2,5.8E1,8.64E2,1.1E2,3.94E2,6.24E2,2.6E1,7.2E1,6.5E1,8.7E1,6.35E2,9E1,9.5E1,1.3E1,6.24E2,6.9E1,6.3E1,2.8E1,1.23E2,7.3E1,7.3E1,6.2E1,1.42E2,6.8E1,1.3E2,5.5E1,2E1,1.45E2,7.1E1,4.6E1,1.11E2,1.7E1,9.6E1,6.1E1],"tree_param":{"num_deleted":"0","num_feature":"21","num_nodes":"127","size_leaf_vector":"1"}},{"base_weights":[-2.061582E-2,-4.506033E0,5.1849052E1,-1.4817509E1,1.2190659E1,4.202348E1,1.0577374E2,-2.1729616E1,-6.386695E0,-5.7099323E0,3.0537306E1,3.1599033E1,5.9753967E1,8.805331E1,1.19437004E2,-2.2967722E1,1.5916447E1,-1.718411E1,5.015051E0,-1.1360846E1,3.2527058E1,2.4660706E1,7.169382E1,2.8398777E1,5.6498127E1,4.2860558E1,7.81391E1,8.506561E1,1.0765314E2,1.0171918E2,1.3554305E2,-2.3396439E1,4.1298454E1,8.336626E0,5.977459E1,-2.0688765E1,6.9620237E0,1.4287621E0,2.987928E1,-1.8517124E1,3.222808E1,2.8444733E1,5.7278015E1,1.7273668E1,6.932321E1,5.840307E1,9.15249E1,2.0202866E1,3.6728558E1,4.2922123E1,6.678456E1,3.6362373E1,8.2427505E1,7.22341E1,1.1996731E2,5.9881735E0,8.812836E1,3.8935406E0,1.18059364E2,9.557215E1,1.0898814E1,1.2960966E2,1.3630644E1,-2.2082596E0,-1.5169451E0,2.5840144E0,4.4264264E0,2.2630842E-1,1.3987626E0,3.5072885E0,5.324671E0,-1.972484E0,4.274681E-1,4.1446447E-1,3.7966924E0,-2.653619E-1,2.2940488E0,1.8806616E0,3.2420382E0,-1.803083E0,4.2972723E-1,2.211702E0,4.455928E0,2.1480994E0,5.9304338E0,4.318118E0,8.191611E0,1.0084547E0,3.4811695E0,4.627523E0,6.6572337E0,4.331109E0,6.708376E0,6.250352E0,8.71722E0,1.4137901E0,3.129591E0,1.9763824E0,3.7793002E0,1.4885417E0,3.5437174E0,4.883826E0,7.6605496E0,2.3209777E0,6.891193E0,5.3311944E0,7.2304015E0,5.261906E0,9.3338375E0,8.693591E0,1.1124532E1,5.394165E0,7.1659827E0,2.611672E0,9.568908E0,6.911327E0,1.0595929E1,9.845797E0,1.3094985E1],"categories":[],"categories_nodes":[],"categories_segments":[],"categories_sizes":[],"default_left":[0,0,0,0,0,0,0,0,0,0,0,0,0,0,0,0,0,0,0,0,0,0,0,0,0,0,0,0,0,0,0,0,0,0,0,0,0,0,0,0,0,0,0,0,0,0,0,0,0,0,0,0,0,0,0,0,0,0,0,0,0,0,0,0,0,0,0,0,0,0,0,0,0,0,0,0,0,0,0,0,0,0,0,0,0,0,0,0,0,0,0,0,0,0,0,0,0,0,0,0,0,0,0,0,0,0,0,0,0,0,0,0,0,0,0,0,0,0,0],"id":5,"left_children":[1,3,5,7,9,11,13,15,17,19,21,23,25,27,29,31,33,35,37,39,41,43,45,47,49,51,53,55,57,59,61,63,65,67,69,71,73,75,77,79,81,83,85,87,89,91,93,95,97,99,101,103,105,107,109,-1,111,-1,113,115,-1,117,-1,-1,-1,-1,-1,-1,-1,-1,-1,-1,-1,-1,-1,-1,-1,-1,-1,-1,-1,-1,-1,-1,-1,-1,-1,-1,-1,-1,-1,-1,-1,-1,-1,-1,-1,-1,-1,-1,-1,-1,-1,-1,-1,-1,-1,-1,-1,-1,-1,-1,-1,-1,-1,-1,-1,-1,-1],"loss_changes":[1.4919603E7,1.0162024E7,2.699865E6,2.126246E6,7.401025E6,7.963945E5,1.79788E5,9.34892E5,2.0240045E6,2.4651245E6,2.689896E6,2.15294E5,4.929705E5,1.11035E4,1.12058E5,5.35805E5,2.119288E5,7.14708E5,7.1305225E5,3.100914E6,1.4680062E5,3.2122595E6,3.61017E5,1.6406188E5,4.0284812E4,2.1169225E5,1.80039E5,2.94425E3,2.0033719E4,3.238425E4,2.5049E4,3.59232E5,1.45006875E4,2.746052E4,7.2424375E3,7.6169525E5,7.700891E4,9.0395594E5,6.7417E4,8.20336E5,1.4923075E5,8.99555E4,2.5307E4,1.023365E6,2.15575E5,8.608325E4,1.213805E5,5.7661375E4,1.5001012E5,3.7205938E3,2.307425E4,2.6056325E5,8.6665E3,1.852485E5,4.945125E3,0E0,8.17125E2,0E0,7.3478125E2,5.1189625E4,0E0,2.418625E4,0E0,0E0,0E0,0E0,0E0,0E0,0E0,0E0,0E0,0E0,0E0,0E0,0E0,0E0,0E0,0E0,0E0,0E0,0E0,0E0,0E0,0E0,0E0,0E0,0E0,0E0,0E0,0E0,0E0,0E0,0E0,0E0,0E0,0E0,0E0,0E0,0E0,0E0,0E0,0E0,0E0,0E0,0E0,0E0,0E0,0E0,0E0,0E0,0E0,0E0,0E0,0E0,0E0,0E0,0E0,0E0,0E0],"parents":[2147483647,0,0,1,1,2,2,3,3,4,4,5,5,6,6,7,7,8,8,9,9,10,10,11,11,12,12,13,13,14,14,15,15,16,16,17,17,18,18,19,19,20,20,21,21,22,22,23,23,24,24,25,25,26,26,27,27,28,28,29,29,30,30,31,31,32,32,33,33,34,34,35,35,36,36,37,37,38,38,39,39,40,40,41,41,42,42,43,43,44,44,45,45,46,46,47,47,48,48,49,49,50,50,51,51,52,52,53,53,54,54,56,56,58,58,59,59,61,61],"right_children":[2,4,6,8,10,12,14,16,18,20,22,24,26,28,30,32,34,36,38,40,42,44,46,48,50,52,54,56,58,60,62,64,66,68,70,72,74,76,78,80,82,84,86,88,90,92,94,96,98,100,102,104,106,108,110,-1,112,-1,114,116,-1,118,-1,-1,-1,-1,-1,-1,-1,-1,-1,-1,-1,-1,-1,-1,-1,-1,-1,-1,-1,-1,-1,-1,-1,-1,-1,-1,-1,-1,-1,-1,-1,-1,-1,-1,-1,-1,-1,-1,-1,-1,-1,-1,-1,-1,-1,-1,-1,-1,-1,-1,-1,-1,-1,-1,-1,-1,-1],"split_conditions":[1E0,2.26E2,1E0,1.29E2,5.1E1,2.34E2,1.581E2,1E0,5.1E1,1E0,1E0,1E0,5.1E1,1E0,5.1E1,1E0,1E0,1E0,1E0,1E0,1E0,1E0,3.06E2,5.1E1,1.1E2,1E0,1E0,5E0,3.3E1,1E0,1E0,5.1E1,7.8E1,8.6E1,9E0,1E0,1E0,1E0,8.1E1,1E0,1E0,1E0,1E0,1E0,2.98E2,1E0,8.1E1,1E0,1.11E2,4E0,1E0,1E0,2.84E2,1E0,8.1E1,5.9881735E0,2.38E1,3.8935406E0,2E0,1E0,1.0898814E1,1E0,1.3630644E1,-2.2082596E0,-1.5169451E0,2.5840144E0,4.4264264E0,2.2630842E-1,1.3987626E0,3.5072885E0,5.324671E0,-1.972484E0,4.274681E-1,4.1446447E-1,3.7966924E0,-2.653619E-1,2.2940488E0,1.8806616E0,3.2420382E0,-1.803083E0,4.2972723E-1,2.211702E0,4.455928E0,2.1480994E0,5.9304338E0,4.318118E0,8.191611E0,1.0084547E0,3.4811695E0,4.627523E0,6.6572337E0,4.331109E0,6.708376E0,6.250352E0,8.71722E0,1.4137901E0,3.129591E0,1.9763824E0,3.7793002E0,1.4885417E0,3.5437174E0,4.883826E0,7.6605496E0,2.3209777E0,6.891193E0,5.3311944E0,7.2304015E0,5.261906E0,9.3338375E0,8.693591E0,1.1124532E1,5.394165E0,7.1659827E0,2.611672E0,9.568908E0,6.911327E0,1.0595929E1,9.845797E0,1.3094985E1],"split_indices":[14,0,13,0,2,0,1,12,2,9,9,12,2,10,2,16,13,9,9,10,7,10,0,2,0,10,9,8,0,10,9,2,0,0,8,10,12,10,2,7,7,12,12,7,0,7,2,10,0,2,10,9,0,10,2,0,1,0,2,9,0,10,0,0,0,0,0,0,0,0,0,0,0,0,0,0,0,0,0,0,0,0,0,0,0,0,0,0,0,0,0,0,0,0,0,0,0,0,0,0,0,0,0,0,0,0,0,0,0,0,0,0,0,0,0,0,0,0,0],"split_type":[0,0,0,0,0,0,0,0,0,0,0,0,0,0,0,0,0,0,0,0,0,0,0,0,0,0,0,0,0,0,0,0,0,0,0,0,0,0,0,0,0,0,0,0,0,0,0,0,0,0,0,0,0,0,0,0,0,0,0,0,0,0,0,0,0,0,0,0,0,0,0,0,0,0,0,0,0,0,0,0,0,0,0,0,0,0,0,0,0,0,0,0,0,0,0,0,0,0,0,0,0,0,0,0,0,0,0,0,0,0,0,0,0,0,0,0,0,0,0],"sum_hessian":[6.4125E4,5.9022E4,5.103E3,3.6488E4,2.2534E4,4.318E3,7.85E2,2.0049E4,1.6439E4,1.1406E4,1.1128E4,2.721E3,1.597E3,3.45E2,4.4E2,1.9411E4,6.38E2,8.443E3,7.996E3,9.938E3,1.468E3,9.739E3,1.389E3,2.413E3,3.08E2,8.34E2,7.63E2,3.04E2,4.1E1,2.13E2,2.27E2,1.9283E4,1.28E2,5.45E2,9.3E1,7.373E3,1.07E3,6.989E3,1.007E3,8.537E3,1.401E3,1.262E3,2.06E2,8.358E3,1.381E3,8.34E2,5.55E2,1.218E3,1.195E3,1.35E2,1.73E2,7.18E2,1.16E2,6.71E2,9.2E1,7.6E1,2.28E2,7E0,3.4E1,1.84E2,2.9E1,1.98E2,2.9E1,9.893E3,9.39E3,8E1,4.8E1,3.41E2,2.04E2,3E1,6.3E1,6.398E3,9.75E2,1.026E3,4.4E1,5.953E3,1.036E3,6.32E2,3.75E2,7.307E3,1.23E3,1.174E3,2.27E2,1.221E3,4.1E1,1.94E2,1.2E1,7.097E3,1.261E3,7.59E2,6.22E2,7.17E2,1.17E2,3.17E2,2.38E2,1.076E3,1.42E2,5.59E2,6.36E2,8E0,1.27E2,1.47E2,2.6E1,6.27E2,9.1E1,4.2E1,7.4E1,5.88E2,8.3E1,6.2E1,3E1,1.8E1,2.1E2,1E0,3.3E1,1.5E2,3.4E1,1.7E2,2.8E1],"tree_param":{"num_deleted":"0","num_feature":"21","num_nodes":"119","size_leaf_vector":"1"}},{"base_weights":[6.1623696E-2,-4.195915E0,4.859275E1,-1.4614503E1,9.801927E0,3.7694206E1,9.3640884E1,-1.7771135E1,2.5977352E1,-6.0949454E0,2.609961E1,2.4210354E1,4.8890244E1,7.339209E1,1.1275983E2,-2.4659477E1,-1.1723061E1,2.3463795E1,6.5629875E1,-1.0941219E1,2.7878809E1,2.0991732E1,6.1781696E1,2.1145527E1,6.217262E1,3.4409508E1,6.459495E1,5.9109818E1,9.1318756E1,9.282646E1,1.2145073E2,-2.5957582E1,-1.537259E1,-2.0177734E1,-2.605571E0,1.4174497E1,3.0333157E1,5.3239754E1,7.796744E1,-1.7263151E1,2.7485836E1,2.4710487E1,7.129374E1,1.4342067E1,6.150904E1,4.5285763E1,7.603145E1,1.4409714E1,2.7989527E1,5.147234E1,6.955442E1,2.9056995E1,6.9846306E1,5.86352E1,1.0278508E2,4.8956375E1,6.5786064E1,7.411077E1,1.1036684E2,9.357137E1,2.265211E1,1.1493455E2,1.2701632E1,-2.1999207E0,-1.3528076E0,-1.9274603E0,-7.9966354E-1,-1.8575281E0,-1.0725248E-2,-4.4339535E-1,1.3974785E0,1.026307E0,2.022577E0,1.6080366E0,3.3144019E0,4.7946653E0,2.6539001E0,4.9759784E0,7.1686945E0,-1.6454628E0,1.9211695E0,1.9514459E0,5.520982E0,1.1938571E0,2.7403777E0,5.333714E0,1.1039263E1,8.8827324E-1,4.4767256E0,4.5993986E0,8.707685E0,3.4025292E0,7.093382E0,5.811628E0,9.644674E0,9.885864E-1,2.381782E0,1.1063719E0,2.6465795E0,3.7467587E0,5.8452005E0,4.2819614E0,6.209597E0,1.8446237E0,5.3238406E0,5.3156857E0,7.6016307E0,4.191693E0,7.882043E0,6.7227793E0,9.571173E0,3.950964E0,1.3362122E0,4.9367733E0,6.9459176E0,5.3455153E0,9.797133E0,7.936872E0,9.743774E0,6.516463E0,7.9827085E0,-6.612335E-2,2.7843764E0,8.218612E0,1.0271857E1],"categories":[],"categories_nodes":[],"categories_segments":[],"categories_sizes":[],"default_left":[0,0,0,0,0,0,0,0,0,0,0,0,0,0,0,0,0,0,0,0,0,0,0,0,0,0,0,0,0,0,0,0,0,0,0,0,0,0,0,0,0,0,0,0,0,0,0,0,0,0,0,0,0,0,0,0,0,0,0,0,0,0,0,0,0,0,0,0,0,0,0,0,0,0,0,0,0,0,0,0,0,0,0,0,0,0,0,0,0,0,0,0,0,0,0,0,0,0,0,0,0,0,0,0,0,0,0,0,0,0,0,0,0,0,0,0,0,0,0,0,0,0,0,0,0],"id":6,"left_children":[1,3,5,7,9,11,13,15,17,19,21,23,25,27,29,31,33,35,37,39,41,43,45,47,49,51,53,55,57,59,61,63,65,67,69,71,73,75,77,79,81,83,85,87,89,91,93,95,97,99,101,103,105,107,109,111,113,115,117,119,121,123,-1,-1,-1,-1,-1,-1,-1,-1,-1,-1,-1,-1,-1,-1,-1,-1,-1,-1,-1,-1,-1,-1,-1,-1,-1,-1,-1,-1,-1,-1,-1,-1,-1,-1,-1,-1,-1,-1,-1,-1,-1,-1,-1,-1,-1,-1,-1,-1,-1,-1,-1,-1,-1,-1,-1,-1,-1,-1,-1,-1,-1,-1,-1],"loss_changes":[1.3173257E7,8.548131E6,2.520981E6,4.306133E6,6.480062E6,6.241165E5,3.79248E5,1.298666E6,2.4015738E5,2.0850545E6,2.249611E6,2.175355E5,5.121915E5,1.198025E5,7.75975E4,1.7532E5,1.2798732E6,1.45188E5,1.7861438E4,2.692661E6,2.1570875E5,2.9102715E6,3.599645E5,7.990269E4,7.478125E3,2.2159838E5,2.40696E5,1.542075E4,6.2293125E4,6.244375E3,6.7838E4,1.77864E5,8.3690875E4,5.251685E5,4.7114644E5,1.4204344E4,1.4803238E5,8.0852656E3,7.2752812E3,1.2988845E6,1.9944012E5,1.3727156E5,2.37875E4,1.2505686E6,2.833135E5,8.213425E4,1.16082E5,2.737839E4,6.1775375E4,2.6867969E3,6.1885938E3,2.2922938E5,6.8683125E3,2.2878225E5,3.5770375E4,7.4478125E2,8.620875E3,3.2716875E4,6.67875E2,3.76425E3,8.8474744E2,3.69155E4,0E0,0E0,0E0,0E0,0E0,0E0,0E0,0E0,0E0,0E0,0E0,0E0,0E0,0E0,0E0,0E0,0E0,0E0,0E0,0E0,0E0,0E0,0E0,0E0,0E0,0E0,0E0,0E0,0E0,0E0,0E0,0E0,0E0,0E0,0E0,0E0,0E0,0E0,0E0,0E0,0E0,0E0,0E0,0E0,0E0,0E0,0E0,0E0,0E0,0E0,0E0,0E0,0E0,0E0,0E0,0E0,0E0,0E0,0E0,0E0,0E0,0E0,0E0],"parents":[2147483647,0,0,1,1,2,2,3,3,4,4,5,5,6,6,7,7,8,8,9,9,10,10,11,11,12,12,13,13,14,14,15,15,16,16,17,17,18,18,19,19,20,20,21,21,22,22,23,23,24,24,25,25,26,26,27,27,28,28,29,29,30,30,31,31,32,32,33,33,34,34,35,35,36,36,37,37,38,38,39,39,40,40,41,41,42,42,43,43,44,44,45,45,46,46,47,47,48,48,49,49,50,50,51,51,52,52,53,53,54,54,55,55,56,56,57,57,58,58,59,59,60,60,61,61],"right_children":[2,4,6,8,10,12,14,16,18,20,22,24,26,28,30,32,34,36,38,40,42,44,46,48,50,52,54,56,58,60,62,64,66,68,70,72,74,76,78,80,82,84,86,88,90,92,94,96,98,100,102,104,106,108,110,112,114,116,118,120,122,124,-1,-1,-1,-1,-1,-1,-1,-1,-1,-1,-1,-1,-1,-1,-1,-1,-1,-1,-1,-1,-1,-1,-1,-1,-1,-1,-1,-1,-1,-1,-1,-1,-1,-1,-1,-1,-1,-1,-1,-1,-1,-1,-1,-1,-1,-1,-1,-1,-1,-1,-1,-1,-1,-1,-1,-1,-1,-1,-1,-1,-1,-1,-1],"split_conditions":[1E0,2.11E2,1E0,1E0,5.1E1,1.71E2,1E0,1.04E2,1E0,1E0,1E0,1E0,5.1E1,2.12E2,1.22E2,1E0,5.1E1,9.7E1,1.1E2,1E0,1E0,1E0,2.78E2,5.1E1,3.9E1,1E0,1E0,9.1E1,5.2E1,9.8E1,1E0,1E0,4.5E1,1E0,1E0,1E0,5.1E1,1E0,4.9E1,1E0,1E0,2.88E2,1E0,1E0,1E0,1E0,1E0,1E0,5.7E1,1E0,7.6E1,1E0,1E0,1E0,2.79E2,9E1,1E0,1E0,8.2E1,8E0,2.1E1,5.5E1,1.2701632E1,-2.1999207E0,-1.3528076E0,-1.9274603E0,-7.9966354E-1,-1.8575281E0,-1.0725248E-2,-4.4339535E-1,1.3974785E0,1.026307E0,2.022577E0,1.6080366E0,3.3144019E0,4.7946653E0,2.6539001E0,4.9759784E0,7.1686945E0,-1.6454628E0,1.9211695E0,1.9514459E0,5.520982E0,1.1938571E0,2.7403777E0,5.333714E0,1.1039263E1,8.8827324E-1,4.4767256E0,4.5993986E0,8.707685E0,3.4025292E0,7.093382E0,5.811628E0,9.644674E0,9.885864E-1,2.381782E0,1.1063719E0,2.6465795E0,3.7467587E0,5.8452005E0,4.2819614E0,6.209597E0,1.8446237E0,5.3238406E0,5.3156857E0,7.6016307E0,4.191693E0,7.882043E0,6.7227793E0,9.571173E0,3.950964E0,1.3362122E0,4.9367733E0,6.9459176E0,5.3455153E0,9.797133E0,7.936872E0,9.743774E0,6.516463E0,7.9827085E0,-6.612335E-2,2.7843764E0,8.218612E0,1.0271857E1],"split_indices":[14,0,15,15,2,0,13,0,13,9,9,13,2,0,0,10,2,0,0,10,15,10,0,2,2,10,9,0,2,2,10,9,0,9,9,9,2,11,2,15,15,0,13,15,15,15,15,9,0,10,0,9,13,10,0,0,9,9,2,8,0,2,0,0,0,0,0,0,0,0,0,0,0,0,0,0,0,0,0,0,0,0,0,0,0,0,0,0,0,0,0,0,0,0,0,0,0,0,0,0,0,0,0,0,0,0,0,0,0,0,0,0,0,0,0,0,0,0,0,0,0,0,0,0,0],"split_type":[0,0,0,0,0,0,0,0,0,0,0,0,0,0,0,0,0,0,0,0,0,0,0,0,0,0,0,0,0,0,0,0,0,0,0,0,0,0,0,0,0,0,0,0,0,0,0,0,0,0,0,0,0,0,0,0,0,0,0,0,0,0,0,0,0,0,0,0,0,0,0,0,0,0,0,0,0,0,0,0,0,0,0,0,0,0,0,0,0,0,0,0,0,0,0,0,0,0,0,0,0,0,0,0,0,0,0,0,0,0,0,0,0,0,0,0,0,0,0,0,0,0,0,0,0],"sum_hessian":[6.3753E4,5.8612E4,5.141E3,3.3602E4,2.501E4,4.141E3,1E3,3.1178E4,2.424E3,1.2661E4,1.2349E4,1.88E3,2.261E3,4.88E2,5.12E2,1.4575E4,1.6603E4,2.281E3,1.43E2,1.1081E4,1.58E3,1.0804E4,1.545E3,1.741E3,1.39E2,1.178E3,1.083E3,2.74E2,2.14E2,1.59E2,3.53E2,1.2786E4,1.789E3,8.614E3,7.989E3,9.71E2,1.31E3,7.4E1,6.9E1,9.516E3,1.565E3,1.474E3,1.06E2,9.282E3,1.522E3,7.18E2,8.27E2,8.79E2,8.62E2,6E1,7.9E1,1.025E3,1.53E2,9.39E2,1.44E2,1.12E2,1.62E2,1.15E2,9.9E1,1.57E2,2E0,3.04E2,4.9E1,1.0923E4,1.863E3,6.81E2,1.108E3,7.479E3,1.135E3,6.97E3,1.019E3,8.68E2,1.03E2,6.83E2,6.27E2,5.4E1,2E1,3.2E1,3.7E1,8.811E3,7.05E2,1.458E3,1.07E2,7.29E2,7.45E2,1.01E2,5E0,8.613E3,6.69E2,1.405E3,1.17E2,6.77E2,4.1E1,7.71E2,5.6E1,7.77E2,1.02E2,2.29E2,6.33E2,5.2E1,8E0,2.9E1,5E1,8.85E2,1.4E2,1.38E2,1.5E1,8.14E2,1.25E2,7.1E1,7.3E1,1.1E2,2E0,1.39E2,2.3E1,1.02E2,1.3E1,5.5E1,4.4E1,5.8E1,9.9E1,1E0,1E0,1.64E2,1.4E2],"tree_param":{"num_deleted":"0","num_feature":"21","num_nodes":"125","size_leaf_vector":"1"}},{"base_weights":[-2.6291184E-2,-3.8719332E0,4.361174E1,-1.22684355E1,1.0841736E1,3.459089E1,9.636297E1,-1.3526525E1,2.6184374E1,-4.308831E0,2.6571081E1,2.0815723E1,4.4878574E1,7.921141E1,1.1385579E2,-1.9941278E1,-6.784551E0,1.9429825E1,6.205657E1,-9.040451E0,2.866629E1,2.1585018E1,6.2378086E1,1.4524195E1,2.6370676E1,3.0244453E1,6.000718E1,7.55349E1,9.9830246E1,9.8106995E1,1.2984564E2,-2.1978437E1,-4.635172E0,-1.5158096E1,3.6238427E0,6.511705E0,2.6944807E1,5.200593E1,7.45672E1,-1.5397424E1,2.7925926E1,2.1170866E1,3.8950268E1,1.5561743E1,5.9588844E1,5.0975647E1,7.814781E1,1.1469922E1,2.347314E1,2.3902512E1,4.9414986E1,2.5895384E1,6.20448E1,5.5303967E1,9.309079E1,8.860617E1,6.929861E1,4.1215942E1,1.0241922E2,8.9248665E1,1.10252075E1,1.2389209E2,1.2737152E1,-1.9740264E0,-4.837977E-1,-1.3755786E0,2.5659785E-1,-1.6552469E0,-7.46259E-1,3.165728E-2,2.0612133E0,-2.3133587E-2,1.0831696E0,1.1237279E0,2.999294E0,3.4703982E0,4.5529795E0,5.1406784E0,8.076859E0,-1.8039613E0,-4.5123658E-1,1.5916173E0,3.0880165E0,1.4489747E0,3.3675716E0,2.952382E0,6.900771E0,5.0883776E-1,2.4081497E0,4.0625563E0,6.09055E0,3.3827572E0,5.2051554E0,5.319348E0,7.281991E0,7.691431E-1,2.2509928E0,1.5862544E0,3.0089889E0,1.7333593E0,3.9316602E0,3.4275389E0,4.8109455E0,1.6263789E0,4.891598E0,4.2950397E0,6.824804E0,3.9832678E0,7.410028E0,6.4752812E0,8.663558E0,1.1433212E0,7.1355705E0,4.739922E0,5.930351E0,4.035273E0,5.4164094E-1,6.290571E0,8.794995E0,6.642419E0,9.935873E0,9.2539625E0,1.2562667E1],"categories":[],"categories_nodes":[],"categories_segments":[],"categories_sizes":[],"default_left":[0,0,0,0,0,0,0,0,0,0,0,0,0,0,0,0,0,0,0,0,0,0,0,0,0,0,0,0,0,0,0,0,0,0,0,0,0,0,0,0,0,0,0,0,0,0,0,0,0,0,0,0,0,0,0,0,0,0,0,0,0,0,0,0,0,0,0,0,0,0,0,0,0,0,0,0,0,0,0,0,0,0,0,0,0,0,0,0,0,0,0,0,0,0,0,0,0,0,0,0,0,0,0,0,0,0,0,0,0,0,0,0,0,0,0,0,0,0,0,0,0,0,0],"id":7,"left_children":[1,3,5,7,9,11,13,15,17,19,21,23,25,27,29,31,33,35,37,39,41,43,45,47,49,51,53,55,57,59,61,63,65,67,69,71,73,75,77,79,81,83,85,87,89,91,93,95,97,99,101,103,105,107,109,111,113,115,117,119,-1,121,-1,-1,-1,-1,-1,-1,-1,-1,-1,-1,-1,-1,-1,-1,-1,-1,-1,-1,-1,-1,-1,-1,-1,-1,-1,-1,-1,-1,-1,-1,-1,-1,-1,-1,-1,-1,-1,-1,-1,-1,-1,-1,-1,-1,-1,-1,-1,-1,-1,-1,-1,-1,-1,-1,-1,-1,-1,-1,-1,-1,-1],"loss_changes":[1.0706509E7,7.243727E6,2.455441E6,1.8062695E6,5.0768E6,6.24594E5,2.172035E5,1.5631965E6,2.8543562E5,1.6934506E6,1.8647115E6,6.5635875E4,5.574255E5,2.15685E4,8.06865E4,5.77464E5,1.5362515E6,9.661278E4,1.9635375E4,2.2307605E6,1.04162125E5,2.099528E6,2.25638E5,2.4002047E4,5.580975E4,1.7624975E5,1.87951E5,2.0760125E4,4.125E3,5.4884E4,1.192225E4,7.02184E5,2.1449003E5,3.148605E5,5.6171175E5,1.7592832E4,8.517178E4,2.0595625E3,1.5551219E4,5.650431E5,1.18642875E5,4.9796938E4,5.2266375E4,1.0596745E6,1.789785E5,8.8350125E4,7.4098E4,2.0266172E4,1.0850023E4,5.011878E4,4.1867188E3,2.2103656E5,2.5361E4,2.1945775E5,1.9497E4,3.2295E3,6.67675E3,9.29522E2,6.54875E2,2.424375E4,0E0,2.4048E4,0E0,0E0,0E0,0E0,0E0,0E0,0E0,0E0,0E0,0E0,0E0,0E0,0E0,0E0,0E0,0E0,0E0,0E0,0E0,0E0,0E0,0E0,0E0,0E0,0E0,0E0,0E0,0E0,0E0,0E0,0E0,0E0,0E0,0E0,0E0,0E0,0E0,0E0,0E0,0E0,0E0,0E0,0E0,0E0,0E0,0E0,0E0,0E0,0E0,0E0,0E0,0E0,0E0,0E0,0E0,0E0,0E0,0E0,0E0,0E0,0E0],"parents":[2147483647,0,0,1,1,2,2,3,3,4,4,5,5,6,6,7,7,8,8,9,9,10,10,11,11,12,12,13,13,14,14,15,15,16,16,17,17,18,18,19,19,20,20,21,21,22,22,23,23,24,24,25,25,26,26,27,27,28,28,29,29,30,30,31,31,32,32,33,33,34,34,35,35,36,36,37,37,38,38,39,39,40,40,41,41,42,42,43,43,44,44,45,45,46,46,47,47,48,48,49,49,50,50,51,51,52,52,53,53,54,54,55,55,56,56,57,57,58,58,59,59,61,61],"right_children":[2,4,6,8,10,12,14,16,18,20,22,24,26,28,30,32,34,36,38,40,42,44,46,48,50,52,54,56,58,60,62,64,66,68,70,72,74,76,78,80,82,84,86,88,90,92,94,96,98,100,102,104,106,108,110,112,114,116,118,120,-1,122,-1,-1,-1,-1,-1,-1,-1,-1,-1,-1,-1,-1,-1,-1,-1,-1,-1,-1,-1,-1,-1,-1,-1,-1,-1,-1,-1,-1,-1,-1,-1,-1,-1,-1,-1,-1,-1,-1,-1,-1,-1,-1,-1,-1,-1,-1,-1,-1,-1,-1,-1,-1,-1,-1,-1,-1,-1,-1,-1,-1,-1],"split_conditions":[1E0,2.33E2,1E0,1E0,5.1E1,1.57E2,1.94E2,5.1E1,1E0,1E0,1E0,8E1,5.1E1,6E0,5.6E1,1E0,1.33E2,4E0,1.286E2,1E0,4E0,1E0,3.07E2,1E0,1E0,1E0,1E0,2E0,2.23E1,1E0,1E0,1E0,9.7E1,7.3E1,1E0,5.1E1,1.08E2,3.9E1,7.9E1,4E0,4E0,1E0,1E0,8.1E1,8.1E1,8.1E1,4E0,1E0,1E0,1E0,6.7E1,1E0,1E0,1E0,2.67E2,1E0,7.2E1,1.4E1,3E1,1E0,1.10252075E1,1E0,1.2737152E1,-1.9740264E0,-4.837977E-1,-1.3755786E0,2.5659785E-1,-1.6552469E0,-7.46259E-1,3.165728E-2,2.0612133E0,-2.3133587E-2,1.0831696E0,1.1237279E0,2.999294E0,3.4703982E0,4.5529795E0,5.1406784E0,8.076859E0,-1.8039613E0,-4.5123658E-1,1.5916173E0,3.0880165E0,1.4489747E0,3.3675716E0,2.952382E0,6.900771E0,5.0883776E-1,2.4081497E0,4.0625563E0,6.09055E0,3.3827572E0,5.2051554E0,5.319348E0,7.281991E0,7.691431E-1,2.2509928E0,1.5862544E0,3.0089889E0,1.7333593E0,3.9316602E0,3.4275389E0,4.8109455E0,1.6263789E0,4.891598E0,4.2950397E0,6.824804E0,3.9832678E0,7.410028E0,6.4752812E0,8.663558E0,1.1433212E0,7.1355705E0,4.739922E0,5.930351E0,4.035273E0,5.4164094E-1,6.290571E0,8.794995E0,6.642419E0,9.935873E0,9.2539625E0,1.2562667E1],"split_indices":[15,0,13,12,2,0,0,2,13,10,9,0,2,5,2,10,0,5,1,9,5,10,0,19,10,10,10,5,1,9,10,9,0,0,9,2,0,2,2,5,5,20,12,2,2,2,5,16,12,16,2,9,19,9,0,2,0,0,2,10,0,9,0,0,0,0,0,0,0,0,0,0,0,0,0,0,0,0,0,0,0,0,0,0,0,0,0,0,0,0,0,0,0,0,0,0,0,0,0,0,0,0,0,0,0,0,0,0,0,0,0,0,0,0,0,0,0,0,0,0,0,0,0],"split_type":[0,0,0,0,0,0,0,0,0,0,0,0,0,0,0,0,0,0,0,0,0,0,0,0,0,0,0,0,0,0,0,0,0,0,0,0,0,0,0,0,0,0,0,0,0,0,0,0,0,0,0,0,0,0,0,0,0,0,0,0,0,0,0,0,0,0,0,0,0,0,0,0,0,0,0,0,0,0,0,0,0,0,0,0,0,0,0,0,0,0,0,0,0,0,0,0,0,0,0,0,0,0,0,0,0,0,0,0,0,0,0,0,0,0,0,0,0,0,0,0,0,0,0],"sum_hessian":[6.3797E4,5.8631E4,5.166E3,3.7329E4,2.1302E4,4.413E3,7.53E2,3.6147E4,1.182E3,1.0851E4,1.0451E4,1.888E3,2.525E3,3.83E2,3.7E2,1.8522E4,1.7625E4,9.96E2,1.86E2,9.49E3,1.361E3,9.175E3,1.276E3,8.87E2,1.001E3,1.285E3,1.24E3,3.29E2,5.4E1,1.9E2,1.8E2,1.6346E4,2.176E3,9.767E3,7.858E3,3.67E2,6.29E2,1.06E2,8E1,8.098E3,1.392E3,7.89E2,5.72E2,7.921E3,1.254E3,7.43E2,5.33E2,6.63E2,2.24E2,9.06E2,9.5E1,1.132E3,1.53E2,1.088E3,1.52E2,1.02E2,2.27E2,3E0,5.1E1,1.58E2,3.2E1,1.54E2,2.6E1,1.3979E4,2.367E3,8.36E2,1.34E3,5.01E3,4.757E3,6.859E3,9.99E2,1.87E2,1.8E2,2.84E2,3.45E2,4.2E1,6.4E1,6E1,2E1,4.672E3,3.426E3,7.96E2,5.96E2,6.9E2,9.9E1,5.5E2,2.2E1,4.852E3,3.069E3,8.21E2,4.33E2,4.62E2,2.81E2,2.83E2,2.5E2,5.98E2,6.5E1,1.8E2,4.4E1,8.34E2,7.2E1,6.2E1,3.3E1,9.79E2,1.53E2,1.15E2,3.8E1,9.5E2,1.38E2,8.8E1,6.4E1,1E0,1.01E2,7.8E1,1.49E2,2E0,1E0,1.5E1,3.6E1,1.37E2,2.1E1,1.27E2,2.7E1],"tree_param":{"num_deleted":"0","num_feature":"21","num_nodes":"123","size_leaf_vector":"1"}},{"base_weights":[5.177718E-2,-3.723398E0,4.3305496E1,-1.3442513E1,6.4845934E0,3.434375E1,7.9889694E1,-1.6051966E1,2.04322E1,-6.385919E0,1.9754917E1,2.1103018E1,4.3022697E1,6.77554E1,9.343964E1,-1.8699017E1,-4.673615E0,1.8047785E1,4.3318237E1,-1.0384805E1,2.1170698E1,1.5610571E1,4.922216E1,1.1829915E1,2.383744E1,3.69086E1,6.9776344E1,6.1932972E1,7.497431E1,7.839076E1,1.0784836E2,-2.0509132E1,-5.532832E0,-1.4230568E1,5.7026253E0,1.5205376E1,3.0875967E1,3.2189236E1,5.870112E1,-1.5530278E1,2.1347599E1,1.8793882E1,5.6517517E1,1.0183761E1,4.83194E1,4.0372158E1,6.3382668E1,1.1145993E1,2.854276E0,1.7939407E1,2.9614723E1,3.259638E1,6.7532974E1,7.715268E1,5.4474777E1,5.1179268E1,6.426985E1,7.1512566E1,8.095397E0,7.114286E1,9.054222E0,1.0253203E2,1.0963474E1,-1.8264387E0,-5.6301403E-1,-1.3766649E0,1.0064851E-1,-1.7322383E0,-7.291514E-1,2.3606576E-1,2.07248E0,1.0283397E0,2.5468676E0,1.1812222E0,3.0932958E0,1.8348793E0,3.0105045E0,3.7973752E0,5.635699E0,-1.4595886E0,1.5034152E0,1.4897593E0,4.371853E0,9.267863E-1,2.234526E0,3.5326777E0,5.712271E0,9.537796E-2,1.7354505E0,3.0879204E0,4.854929E0,2.5519881E0,4.1851206E0,3.7236693E0,5.781884E0,8.227156E-1,1.1526896E0,1.2321819E0,2.7716134E0,2.2165284E0,3.3896282E0,2.1707795E0,5.219069E0,4.8688374E0,6.8779197E0,5.3017335E0,7.101376E0,3.9651532E0,5.788718E0,3.5129921E0,4.9123836E0,4.888177E0,6.1592317E0,5.293421E0,6.3166356E0,5.0169554E0,8.5872E0,7.7195687E0,1.1136607E1],"categories":[],"categories_nodes":[],"categories_segments":[],"categories_sizes":[],"default_left":[0,0,0,0,0,0,0,0,0,0,0,0,0,0,0,0,0,0,0,0,0,0,0,0,0,0,0,0,0,0,0,0,0,0,0,0,0,0,0,0,0,0,0,0,0,0,0,0,0,0,0,0,0,0,0,0,0,0,0,0,0,0,0,0,0,0,0,0,0,0,0,0,0,0,0,0,0,0,0,0,0,0,0,0,0,0,0,0,0,0,0,0,0,0,0,0,0,0,0,0,0,0,0,0,0,0,0,0,0,0,0,0,0,0,0,0,0,0,0],"id":8,"left_children":[1,3,5,7,9,11,13,15,17,19,21,23,25,27,29,31,33,35,37,39,41,43,45,47,49,51,53,55,57,59,61,63,65,67,69,71,73,75,77,79,81,83,85,87,89,91,93,95,-1,97,99,101,103,105,107,109,111,113,-1,115,-1,117,-1,-1,-1,-1,-1,-1,-1,-1,-1,-1,-1,-1,-1,-1,-1,-1,-1,-1,-1,-1,-1,-1,-1,-1,-1,-1,-1,-1,-1,-1,-1,-1,-1,-1,-1,-1,-1,-1,-1,-1,-1,-1,-1,-1,-1,-1,-1,-1,-1,-1,-1,-1,-1,-1,-1,-1,-1],"loss_changes":[1.0459725E7,5.8451015E6,1.683104E6,2.6680715E6,4.9079455E6,4.73923E5,1.598965E5,8.439105E5,1.17034375E5,1.6077558E6,1.7270205E6,4.1252062E4,4.055425E5,1.79275E4,9.45425E4,5.416665E5,5.246653E5,7.08885E4,3.286325E4,2.0804965E6,1.5427775E5,2.2014535E6,2.16E5,5.7187734E3,4.2539E4,2.66275E5,4.805575E4,4.325E3,1.409225E4,5.1451625E4,2.3199E4,6.2481E5,2.1798281E5,1.04384E5,1.4096988E5,6.2307812E4,4.385822E4,5.179703E3,7.7394062E3,1.0217925E6,1.6036112E5,1.13902125E5,1.8188062E4,1.1011785E6,2.098355E5,1.07195375E5,9.678125E4,8.8121484E2,0E0,2.6084E4,1.43301875E4,3.1627888E5,2.55295E4,3.32945E4,9.937531E3,1.6876875E3,5.1678125E3,3.172125E3,0E0,5.3693188E4,0E0,3.240225E4,0E0,0E0,0E0,0E0,0E0,0E0,0E0,0E0,0E0,0E0,0E0,0E0,0E0,0E0,0E0,0E0,0E0,0E0,0E0,0E0,0E0,0E0,0E0,0E0,0E0,0E0,0E0,0E0,0E0,0E0,0E0,0E0,0E0,0E0,0E0,0E0,0E0,0E0,0E0,0E0,0E0,0E0,0E0,0E0,0E0,0E0,0E0,0E0,0E0,0E0,0E0,0E0,0E0,0E0,0E0,0E0,0E0],"parents":[2147483647,0,0,1,1,2,2,3,3,4,4,5,5,6,6,7,7,8,8,9,9,10,10,11,11,12,12,13,13,14,14,15,15,16,16,17,17,18,18,19,19,20,20,21,21,22,22,23,23,24,24,25,25,26,26,27,27,28,28,29,29,30,30,31,31,32,32,33,33,34,34,35,35,36,36,37,37,38,38,39,39,40,40,41,41,42,42,43,43,44,44,45,45,46,46,47,47,49,49,50,50,51,51,52,52,53,53,54,54,55,55,56,56,57,57,59,59,61,61],"right_children":[2,4,6,8,10,12,14,16,18,20,22,24,26,28,30,32,34,36,38,40,42,44,46,48,50,52,54,56,58,60,62,64,66,68,70,72,74,76,78,80,82,84,86,88,90,92,94,96,-1,98,100,102,104,106,108,110,112,114,-1,116,-1,118,-1,-1,-1,-1,-1,-1,-1,-1,-1,-1,-1,-1,-1,-1,-1,-1,-1,-1,-1,-1,-1,-1,-1,-1,-1,-1,-1,-1,-1,-1,-1,-1,-1,-1,-1,-1,-1,-1,-1,-1,-1,-1,-1,-1,-1,-1,-1,-1,-1,-1,-1,-1,-1,-1,-1,-1,-1],"split_conditions":[1E0,1.832E2,1E0,1E0,1E0,1.444E2,1.95E2,1E0,1E0,1E0,1E0,4.08E1,1E0,1.14E2,1E0,1E0,9.92E1,1E0,1.006E2,1E0,1E0,1E0,1E0,1E0,1E0,1E0,1E0,2.91E1,1E0,1E0,1E0,1E0,7.39E1,4.61E1,1E0,1E0,6.97E1,3.96E1,1E0,1E0,1E0,4E0,4E0,4E0,4E0,4E0,2.453E2,1E0,2.854276E0,1E0,1E0,1E0,3.107E2,2.544E2,3.169E2,1.7E1,1E0,4E0,8.095397E0,1E0,9.054222E0,1E0,1.0963474E1,-1.8264387E0,-5.6301403E-1,-1.3766649E0,1.0064851E-1,-1.7322383E0,-7.291514E-1,2.3606576E-1,2.07248E0,1.0283397E0,2.5468676E0,1.1812222E0,3.0932958E0,1.8348793E0,3.0105045E0,3.7973752E0,5.635699E0,-1.4595886E0,1.5034152E0,1.4897593E0,4.371853E0,9.267863E-1,2.234526E0,3.5326777E0,5.712271E0,9.537796E-2,1.7354505E0,3.0879204E0,4.854929E0,2.5519881E0,4.1851206E0,3.7236693E0,5.781884E0,8.227156E-1,1.1526896E0,1.2321819E0,2.7716134E0,2.2165284E0,3.3896282E0,2.1707795E0,5.219069E0,4.8688374E0,6.8779197E0,5.3017335E0,7.101376E0,3.9651532E0,5.788718E0,3.5129921E0,4.9123836E0,4.888177E0,6.1592317E0,5.293421E0,6.3166356E0,5.0169554E0,8.5872E0,7.7195687E0,1.1136607E1],"split_indices":[14,1,15,15,3,1,1,4,16,9,9,1,4,1,3,10,1,4,1,10,15,10,4,16,3,9,11,1,10,9,9,9,1,1,10,9,1,1,3,15,15,5,5,5,5,5,1,4,0,10,9,10,1,1,1,8,4,5,0,10,0,10,0,0,0,0,0,0,0,0,0,0,0,0,0,0,0,0,0,0,0,0,0,0,0,0,0,0,0,0,0,0,0,0,0,0,0,0,0,0,0,0,0,0,0,0,0,0,0,0,0,0,0,0,0,0,0,0,0],"split_type":[0,0,0,0,0,0,0,0,0,0,0,0,0,0,0,0,0,0,0,0,0,0,0,0,0,0,0,0,0,0,0,0,0,0,0,0,0,0,0,0,0,0,0,0,0,0,0,0,0,0,0,0,0,0,0,0,0,0,0,0,0,0,0,0,0,0,0,0,0,0,0,0,0,0,0,0,0,0,0,0,0,0,0,0,0,0,0,0,0,0,0,0,0,0,0,0,0,0,0,0,0,0,0,0,0,0,0,0,0,0,0,0,0,0,0,0,0,0,0],"sum_hessian":[6.4054E4,5.8913E4,5.141E3,3.0179E4,2.8734E4,4.131E3,1.01E3,2.8021E4,2.158E3,1.4587E4,1.4147E4,1.637E3,2.494E3,5.36E2,4.74E2,2.2732E4,5.289E3,1.956E3,2.02E2,1.2739E4,1.848E3,1.2404E4,1.743E3,3.74E2,1.263E3,2.032E3,4.62E2,3.02E2,2.34E2,2.35E2,2.39E2,1.9984E4,2.748E3,2.753E3,2.536E3,1.603E3,3.53E2,1.19E2,8.3E1,1.0962E4,1.777E3,1.733E3,1.15E2,1.064E4,1.764E3,1.075E3,6.68E2,3.65E2,9E0,6.27E2,6.36E2,1.783E3,2.49E2,3.09E2,1.53E2,5.8E1,2.44E2,2.1E2,2.4E1,1.97E2,3.8E1,2.06E2,3.3E1,1.7046E4,2.938E3,1.01E3,1.738E3,1.122E3,1.631E3,2.233E3,3.03E2,1.406E3,1.97E2,1.16E2,2.37E2,4.6E1,7.3E1,4.5E1,3.8E1,1.0159E4,8.03E2,1.644E3,1.33E2,9.7E2,7.63E2,6.5E1,5E1,5.974E3,4.666E3,9.9E2,7.74E2,6.31E2,4.44E2,2.33E2,4.35E2,2.92E2,7.3E1,5.46E2,8.1E1,5.56E2,8E1,1.529E3,2.54E2,1.86E2,6.3E1,1.63E2,1.46E2,1.23E2,3E1,3.7E1,2.1E1,2E2,4.4E1,1.28E2,8.2E1,1.62E2,3.5E1,1.8E2,2.6E1],"tree_param":{"num_deleted":"0","num_feature":"21","num_nodes":"119","size_leaf_vector":"1"}},{"base_weights":[2.795198E-2,-3.4896483E0,4.0296207E1,-1.3912566E1,5.3537817E0,2.992875E1,7.0590385E1,-1.6326729E1,1.7323957E1,-6.48175E0,1.7558287E1,2.3049173E1,4.53183E1,5.654061E1,8.804924E1,-2.1386042E1,-1.2541266E1,1.3173222E1,3.568544E1,-2.0676685E-2,-1.923471E1,2.46907E1,3.2187037E0,1.9977785E1,4.7070663E1,3.1694054E1,5.979373E1,4.2654892E1,7.0812485E1,7.619207E1,9.976586E1,-2.1760511E1,-2.5660496E0,-1.5322424E1,-4.0780425E-1,1.0178025E1,3.6251156E1,3.237347E1,5.3608444E1,-2.6099653E0,3.3205208E1,-2.1385403E1,8.88553E0,1.6559273E1,3.8601864E1,-8.128258E-1,2.6148102E1,1.3364725E1,2.559904E1,4.241084E1,6.287867E1,3.9274437E1,1.5722377E1,5.4058178E1,8.726378E1,3.6561226E1,5.233562E1,5.5592888E1,8.818564E1,7.1623146E1,6.894974E0,8.567381E1,1.101335E2,-1.9926116E0,-1.5645764E0,-5.1827604E-1,1.4419004E-1,-9.1640145E-1,-1.8342531E0,3.1663722E-1,-6.9842803E-1,6.080483E-1,1.7025613E0,1.924286E0,3.9094753E0,2.1708984E0,3.4313002E0,3.3357198E0,5.1180863E0,-7.518519E-1,5.3805035E-1,2.267463E0,5.0339694E0,-1.9322597E0,-3.5389206E-1,4.0793663E-1,3.6444283E0,1.1136982E0,3.9626672E0,2.3469324E0,4.299581E0,-6.712254E-1,8.6639494E-1,1.8327459E0,5.213926E0,9.6971184E-1,3.5043247E0,1.4316914E0,2.7134902E0,3.0895722E0,4.474908E0,3.1301394E0,6.0415683E0,2.8315954E0,5.030663E0,7.3637134E-1,3.2364821E0,3.9220686E0,7.3276324E0,7.86117E0,5.1191773E0,2.3737102E0,3.5414734E0,3.3437982E0,4.5226393E0,4.931707E0,3.2054448E0,6.360766E0,8.327371E0,5.264457E0,6.2333097E0,5.6223474E0,7.2793303E0,9.646164E0,7.402624E0],"categories":[],"categories_nodes":[],"categories_segments":[],"categories_sizes":[],"default_left":[0,0,0,0,0,0,0,0,0,0,0,0,0,0,0,0,0,0,0,0,0,0,0,0,0,0,0,0,0,0,0,0,0,0,0,0,0,0,0,0,0,0,0,0,0,0,0,0,0,0,0,0,0,0,0,0,0,0,0,0,0,0,0,0,0,0,0,0,0,0,0,0,0,0,0,0,0,0,0,0,0,0,0,0,0,0,0,0,0,0,0,0,0,0,0,0,0,0,0,0,0,0,0,0,0,0,0,0,0,0,0,0,0,0,0,0,0,0,0,0,0,0,0,0,0],"id":9,"left_children":[1,3,5,7,9,11,13,15,17,19,21,23,25,27,29,31,33,35,37,39,41,43,45,47,49,51,53,55,57,59,61,63,65,67,69,71,73,75,77,79,81,83,85,87,89,91,93,95,97,99,101,103,105,107,109,111,113,115,117,119,-1,121,123,-1,-1,-1,-1,-1,-1,-1,-1,-1,-1,-1,-1,-1,-1,-1,-1,-1,-1,-1,-1,-1,-1,-1,-1,-1,-1,-1,-1,-1,-1,-1,-1,-1,-1,-1,-1,-1,-1,-1,-1,-1,-1,-1,-1,-1,-1,-1,-1,-1,-1,-1,-1,-1,-1,-1,-1,-1,-1,-1,-1,-1,-1],"loss_changes":[9.043349E6,5.412091E6,1.608771E6,2.032659E6,4.588467E6,4.0371025E5,3.156195E5,4.78873E5,1.4692719E5,1.3288292E6,1.599412E6,1.94132E5,2.3082075E5,1.41053E5,7.3115E4,7.5395E4,4.82987E5,1.0877616E5,1.9396875E4,9.210529E5,3.2816212E5,1.1807615E6,4.8034234E5,8.6867375E4,1.9358375E4,7.3236125E4,8.5247125E4,1.9972312E4,8.9492625E4,7.20725E3,3.278775E4,7.23E4,3.600793E3,3.422395E5,9.704719E4,3.9877156E4,2.6680531E4,1.5526625E4,4.0013594E3,6.2947125E5,1.100545E5,2.364145E5,5.3361402E4,5.728161E5,5.38867E5,3.9003628E5,9.671694E4,4.0342766E4,8.0588625E4,9.83875E3,1.6861469E4,3.5601062E4,3.1546672E4,8.5236625E4,1.8547375E4,1.0952906E4,3.8738438E3,1.5667875E4,1.4494625E4,2.451125E3,0E0,4.002E3,1.8804375E4,0E0,0E0,0E0,0E0,0E0,0E0,0E0,0E0,0E0,0E0,0E0,0E0,0E0,0E0,0E0,0E0,0E0,0E0,0E0,0E0,0E0,0E0,0E0,0E0,0E0,0E0,0E0,0E0,0E0,0E0,0E0,0E0,0E0,0E0,0E0,0E0,0E0,0E0,0E0,0E0,0E0,0E0,0E0,0E0,0E0,0E0,0E0,0E0,0E0,0E0,0E0,0E0,0E0,0E0,0E0,0E0,0E0,0E0,0E0,0E0,0E0,0E0],"parents":[2147483647,0,0,1,1,2,2,3,3,4,4,5,5,6,6,7,7,8,8,9,9,10,10,11,11,12,12,13,13,14,14,15,15,16,16,17,17,18,18,19,19,20,20,21,21,22,22,23,23,24,24,25,25,26,26,27,27,28,28,29,29,30,30,31,31,32,32,33,33,34,34,35,35,36,36,37,37,38,38,39,39,40,40,41,41,42,42,43,43,44,44,45,45,46,46,47,47,48,48,49,49,50,50,51,51,52,52,53,53,54,54,55,55,56,56,57,57,58,58,59,59,61,61,62,62],"right_children":[2,4,6,8,10,12,14,16,18,20,22,24,26,28,30,32,34,36,38,40,42,44,46,48,50,52,54,56,58,60,62,64,66,68,70,72,74,76,78,80,82,84,86,88,90,92,94,96,98,100,102,104,106,108,110,112,114,116,118,120,-1,122,124,-1,-1,-1,-1,-1,-1,-1,-1,-1,-1,-1,-1,-1,-1,-1,-1,-1,-1,-1,-1,-1,-1,-1,-1,-1,-1,-1,-1,-1,-1,-1,-1,-1,-1,-1,-1,-1,-1,-1,-1,-1,-1,-1,-1,-1,-1,-1,-1,-1,-1,-1,-1,-1,-1,-1,-1,-1,-1,-1,-1,-1,-1],"split_conditions":[1E0,1.71E2,1E0,1E0,1E0,2.57E2,1E0,7.8E1,1E0,1E0,1E0,1E0,1E0,1.86E2,1.94E2,1E0,1E0,1E0,4E0,1E0,1E0,2.9E2,1E0,1.23E2,1E0,1E0,1E0,1E0,1E0,4E0,1E0,3.8E1,4.2E1,1E0,1E0,1E0,8.9E1,1.16E2,1E0,4E0,1E0,1E0,1E0,1E0,1E0,1E0,1E0,1E0,1E0,2.07E2,9.9E1,1E0,1E0,1E0,1E0,1.1E2,7.1E1,1E0,2.98E2,1E0,6.894974E0,7E0,1E0,-1.9926116E0,-1.5645764E0,-5.1827604E-1,1.4419004E-1,-9.1640145E-1,-1.8342531E0,3.1663722E-1,-6.9842803E-1,6.080483E-1,1.7025613E0,1.924286E0,3.9094753E0,2.1708984E0,3.4313002E0,3.3357198E0,5.1180863E0,-7.518519E-1,5.3805035E-1,2.267463E0,5.0339694E0,-1.9322597E0,-3.5389206E-1,4.0793663E-1,3.6444283E0,1.1136982E0,3.9626672E0,2.3469324E0,4.299581E0,-6.712254E-1,8.6639494E-1,1.8327459E0,5.213926E0,9.6971184E-1,3.5043247E0,1.4316914E0,2.7134902E0,3.0895722E0,4.474908E0,3.1301394E0,6.0415683E0,2.8315954E0,5.030663E0,7.3637134E-1,3.2364821E0,3.9220686E0,7.3276324E0,7.86117E0,5.1191773E0,2.3737102E0,3.5414734E0,3.3437982E0,4.5226393E0,4.931707E0,3.2054448E0,6.360766E0,8.327371E0,5.264457E0,6.2333097E0,5.6223474E0,7.2793303E0,9.646164E0,7.402624E0],"split_indices":[14,0,12,15,3,0,15,0,12,11,11,15,3,0,0,12,4,16,5,15,15,0,7,0,4,11,7,13,3,5,3,0,0,11,11,4,0,0,3,5,7,7,16,15,4,4,15,16,3,0,0,15,7,15,11,0,0,11,0,3,0,8,11,0,0,0,0,0,0,0,0,0,0,0,0,0,0,0,0,0,0,0,0,0,0,0,0,0,0,0,0,0,0,0,0,0,0,0,0,0,0,0,0,0,0,0,0,0,0,0,0,0,0,0,0,0,0,0,0,0,0,0,0,0,0],"split_type":[0,0,0,0,0,0,0,0,0,0,0,0,0,0,0,0,0,0,0,0,0,0,0,0,0,0,0,0,0,0,0,0,0,0,0,0,0,0,0,0,0,0,0,0,0,0,0,0,0,0,0,0,0,0,0,0,0,0,0,0,0,0,0,0,0,0,0,0,0,0,0,0,0,0,0,0,0,0,0,0,0,0,0,0,0,0,0,0,0,0,0,0,0,0,0,0,0,0,0,0,0,0,0,0,0,0,0,0,0,0,0,0,0,0,0,0,0,0,0,0,0,0,0,0,0],"sum_hessian":[6.3842E4,5.8714E4,5.128E3,2.695E4,3.1764E4,3.822E3,1.306E3,2.5017E4,1.933E3,1.6126E4,1.5638E4,2.643E3,1.179E3,7.26E2,5.8E2,1.0705E4,1.4312E4,1.578E3,3.55E2,1.0704E4,5.422E3,1.0443E4,5.195E3,2.345E3,2.98E2,6.09E2,5.7E2,3.7E2,3.56E2,2.92E2,2.88E2,1.0496E4,2.09E2,1.1643E4,2.669E3,1.398E3,1.8E2,3.02E2,5.3E1,9.931E3,7.73E2,5.037E3,3.85E2,6.592E3,3.851E3,4.419E3,7.76E2,1.079E3,1.266E3,2.33E2,6.5E1,4.12E2,1.97E2,4.74E2,9.6E1,2.3E2,1.4E2,1.92E2,1.64E2,2.06E2,8.6E1,1.26E2,1.62E2,4.318E3,6.178E3,1.1E2,9.9E1,7.72E3,3.923E3,1.751E3,9.18E2,1.136E3,2.62E2,9.3E1,8.7E1,2.04E2,9.8E1,2.7E1,2.6E1,5.75E3,4.181E3,6.66E2,1.07E2,4.33E3,7.07E2,3.5E2,3.5E1,6.105E3,4.87E2,2.391E3,1.46E3,2.677E3,1.742E3,7.18E2,5.8E1,1.038E3,4.1E1,6.59E2,6.07E2,1.85E2,4.8E1,2.4E1,4.1E1,3.56E2,5.6E1,1.57E2,4E1,4.2E2,5.4E1,6.3E1,3.3E1,1.24E2,1.06E2,4.3E1,9.7E1,1.36E2,5.6E1,1.1E2,5.4E1,1.13E2,9.3E1,3.6E1,9E1,9.8E1,6.4E1],"tree_param":{"num_deleted":"0","num_feature":"21","num_nodes":"125","size_leaf_vector":"1"}},{"base_weights":[6.431466E-2,-3.116102E0,3.655896E1,-1.3660672E1,3.8334038E0,2.6931467E1,6.4915924E1,-1.573581E1,1.3895618E1,3.2099283E-1,2.8135101E1,1.9227339E1,3.6899223E1,5.197775E1,8.097053E1,-1.7151022E1,-5.7256293E0,1.0376185E1,3.126308E1,-4.249634E0,2.7747782E1,1.7228788E1,3.5930668E1,1.6407032E1,4.2358463E1,3.254492E1,6.81199E1,4.148794E1,6.4847145E1,7.046438E1,9.491982E1,-1.886116E1,-7.1100364E0,-1.4626079E1,-4.1634348E-4,7.7641973E0,3.094819E1,2.5854319E1,4.1078854E1,-6.638796E0,2.5827589E1,2.4982191E1,6.334361E1,1.4770967E1,4.719313E1,3.205908E1,6.024164E1,1.4550329E1,3.0520992E1,2.9389887E1,4.6085762E1,2.778247E1,6.0082214E1,6.324907E1,7.8022385E0,3.3709816E1,4.769864E1,5.9721786E1,9.67135E1,6.660552E1,7.878946E1,8.944109E1,9.599867E0,-1.607617E0,-9.240586E-1,-1.3898387E0,-7.3381476E-2,-1.5495182E0,-8.579813E-1,-1.474642E-1,7.441936E-1,4.9347576E-1,1.5400575E0,1.6552827E0,3.22354E0,1.7943962E0,3.86033E0,3.7395406E0,2.1645453E0,-7.9298145E-1,9.760274E-1,1.7079809E0,4.226209E0,1.3359157E0,2.7564888E0,4.7033386E0,8.069895E0,7.765324E-1,1.7242984E0,3.3051054E0,6.6216073E0,2.3637972E0,5.323846E0,4.571196E0,7.5716558E0,9.7517735E-1,2.3822975E0,1.4219594E0,3.4762828E0,-6.25773E-1,2.4179082E0,3.065743E0,4.175288E0,1.8957316E0,3.970664E0,4.394356E0,6.554182E0,3.698687E0,5.581548E0,2.5340657E0,3.7576177E0,4.1219087E0,2.9695566E0,4.3122745E0,7.3859067E0,5.606491E0,8.572313E0,3.4616005E0,5.3877306E0,5.3759284E0,7.5063415E0,6.595662E0,9.6850195E0],"categories":[],"categories_nodes":[],"categories_segments":[],"categories_sizes":[],"default_left":[0,0,0,0,0,0,0,0,0,0,0,0,0,0,0,0,0,0,0,0,0,0,0,0,0,0,0,0,0,0,0,0,0,0,0,0,0,0,0,0,0,0,0,0,0,0,0,0,0,0,0,0,0,0,0,0,0,0,0,0,0,0,0,0,0,0,0,0,0,0,0,0,0,0,0,0,0,0,0,0,0,0,0,0,0,0,0,0,0,0,0,0,0,0,0,0,0,0,0,0,0,0,0,0,0,0,0,0,0,0,0,0,0,0,0,0,0,0,0,0,0,0,0],"id":10,"left_children":[1,3,5,7,9,11,13,15,17,19,21,23,25,27,29,31,33,35,37,39,41,43,45,47,49,51,53,55,57,59,61,63,65,67,69,71,73,75,77,79,81,83,85,87,89,91,93,95,97,99,101,103,105,107,-1,109,111,113,115,117,119,121,-1,-1,-1,-1,-1,-1,-1,-1,-1,-1,-1,-1,-1,-1,-1,-1,-1,-1,-1,-1,-1,-1,-1,-1,-1,-1,-1,-1,-1,-1,-1,-1,-1,-1,-1,-1,-1,-1,-1,-1,-1,-1,-1,-1,-1,-1,-1,-1,-1,-1,-1,-1,-1,-1,-1,-1,-1,-1,-1,-1,-1],"loss_changes":[7.4133885E6,4.3052995E6,1.396045E6,1.334815E6,3.022758E6,2.929465E5,2.652005E5,3.07386E5,9.961275E4,3.8789332E6,3.795945E5,1.4015144E5,2.2426625E5,9.4642625E4,7.7873E4,3.26399E5,1.3707423E5,7.289145E4,1.3537969E4,1.9060969E6,4.3353775E5,1.3672819E5,2.4344475E5,5.00275E4,9.9565625E3,1.9032712E5,2.2909625E4,1.7715125E4,4.681525E4,5.450125E3,2.292975E4,1.46348E5,1.7597078E5,1.92765E4,2.8099137E4,2.2041766E4,1.3833469E4,1.2724602E4,6.3615312E3,1.5154616E6,2.3487162E5,3.2140675E5,4.8394E4,5.9078938E4,2.6073188E4,1.93022E5,3.26875E4,6.0892938E4,3.5988E4,1.9432695E3,6.53225E3,1.1042219E5,1.9700688E4,1.6411688E4,0E0,3.3940156E3,6.990375E3,4.8136812E4,4.4468125E3,1.13275E3,1.1126375E4,3.53655E4,0E0,0E0,0E0,0E0,0E0,0E0,0E0,0E0,0E0,0E0,0E0,0E0,0E0,0E0,0E0,0E0,0E0,0E0,0E0,0E0,0E0,0E0,0E0,0E0,0E0,0E0,0E0,0E0,0E0,0E0,0E0,0E0,0E0,0E0,0E0,0E0,0E0,0E0,0E0,0E0,0E0,0E0,0E0,0E0,0E0,0E0,0E0,0E0,0E0,0E0,0E0,0E0,0E0,0E0,0E0,0E0,0E0,0E0,0E0,0E0,0E0],"parents":[2147483647,0,0,1,1,2,2,3,3,4,4,5,5,6,6,7,7,8,8,9,9,10,10,11,11,12,12,13,13,14,14,15,15,16,16,17,17,18,18,19,19,20,20,21,21,22,22,23,23,24,24,25,25,26,26,27,27,28,28,29,29,30,30,31,31,32,32,33,33,34,34,35,35,36,36,37,37,38,38,39,39,40,40,41,41,42,42,43,43,44,44,45,45,46,46,47,47,48,48,49,49,50,50,51,51,52,52,53,53,55,55,56,56,57,57,58,58,59,59,60,60,61,61],"right_children":[2,4,6,8,10,12,14,16,18,20,22,24,26,28,30,32,34,36,38,40,42,44,46,48,50,52,54,56,58,60,62,64,66,68,70,72,74,76,78,80,82,84,86,88,90,92,94,96,98,100,102,104,106,108,-1,110,112,114,116,118,120,122,-1,-1,-1,-1,-1,-1,-1,-1,-1,-1,-1,-1,-1,-1,-1,-1,-1,-1,-1,-1,-1,-1,-1,-1,-1,-1,-1,-1,-1,-1,-1,-1,-1,-1,-1,-1,-1,-1,-1,-1,-1,-1,-1,-1,-1,-1,-1,-1,-1,-1,-1,-1,-1,-1,-1,-1,-1,-1,-1,-1,-1],"split_conditions":[1E0,1.444E2,1E0,1E0,1E0,1.989E2,1E0,1E0,1E0,1E0,2.28E2,1E0,1E0,2.001E2,2.136E2,1E0,6.04E1,1E0,1E0,1E0,1E0,1E0,1E0,1E0,4.48E1,1E0,1E0,1.006E2,1E0,1.457E2,1E0,1E0,6.04E1,3.31E1,1E0,1E0,7.25E1,1E0,1E0,1E0,1E0,2.517E2,1E0,4E0,1E0,1E0,1E0,1E0,1.019E2,1.02E1,4E0,1E0,1E0,2.453E2,7.8022385E0,1E0,6E0,1E0,3E0,1.45E1,3E0,1E0,9.599867E0,-1.607617E0,-9.240586E-1,-1.3898387E0,-7.3381476E-2,-1.5495182E0,-8.579813E-1,-1.474642E-1,7.441936E-1,4.9347576E-1,1.5400575E0,1.6552827E0,3.22354E0,1.7943962E0,3.86033E0,3.7395406E0,2.1645453E0,-7.9298145E-1,9.760274E-1,1.7079809E0,4.226209E0,1.3359157E0,2.7564888E0,4.7033386E0,8.069895E0,7.765324E-1,1.7242984E0,3.3051054E0,6.6216073E0,2.3637972E0,5.323846E0,4.571196E0,7.5716558E0,9.7517735E-1,2.3822975E0,1.4219594E0,3.4762828E0,-6.25773E-1,2.4179082E0,3.065743E0,4.175288E0,1.8957316E0,3.970664E0,4.394356E0,6.554182E0,3.698687E0,5.581548E0,2.5340657E0,3.7576177E0,4.1219087E0,2.9695566E0,4.3122745E0,7.3859067E0,5.606491E0,8.572313E0,3.4616005E0,5.3877306E0,5.3759284E0,7.5063415E0,6.595662E0,9.6850195E0],"split_indices":[14,1,12,15,9,1,15,10,12,10,1,15,9,1,1,9,1,16,13,15,15,15,7,10,1,10,15,1,10,1,9,7,1,1,7,10,1,10,11,7,7,1,16,5,7,15,15,9,1,1,5,7,7,1,0,9,5,9,5,1,5,10,0,0,0,0,0,0,0,0,0,0,0,0,0,0,0,0,0,0,0,0,0,0,0,0,0,0,0,0,0,0,0,0,0,0,0,0,0,0,0,0,0,0,0,0,0,0,0,0,0,0,0,0,0,0,0,0,0,0,0,0,0],"split_type":[0,0,0,0,0,0,0,0,0,0,0,0,0,0,0,0,0,0,0,0,0,0,0,0,0,0,0,0,0,0,0,0,0,0,0,0,0,0,0,0,0,0,0,0,0,0,0,0,0,0,0,0,0,0,0,0,0,0,0,0,0,0,0,0,0,0,0,0,0,0,0,0,0,0,0,0,0,0,0,0,0,0,0,0,0,0,0,0,0,0,0,0,0,0,0,0,0,0,0,0,0,0,0,0,0,0,0,0,0,0,0,0,0,0,0,0,0,0,0,0,0,0,0],"sum_hessian":[6.3869E4,5.875E4,5.119E3,2.3338E4,3.5412E4,3.823E3,1.296E3,2.1704E4,1.634E3,3.0941E4,4.471E3,2.158E3,1.665E3,7.2E2,5.76E2,1.9015E4,2.689E3,1.36E3,2.74E2,2.6522E4,4.419E3,1.865E3,2.606E3,1.925E3,2.33E2,1.463E3,2.02E2,3.99E2,3.21E2,3.32E2,2.44E2,1.6247E4,2.768E3,1.052E3,1.637E3,1.208E3,1.52E2,1.79E2,9.5E1,2.4571E4,1.951E3,4.102E3,3.17E2,1.725E3,1.4E2,2.25E3,3.56E2,1.703E3,2.22E2,5.4E1,1.79E2,1.249E3,2.14E2,1.76E2,2.6E1,1.8E2,2.19E2,2.79E2,4.2E1,2.33E2,9.9E1,2.04E2,4E1,1.3899E4,2.348E3,1.041E3,1.727E3,4.73E2,5.79E2,1.367E3,2.7E2,1.062E3,1.46E2,7.4E1,7.8E1,1.57E2,2.2E1,6.6E1,2.9E1,2.0934E4,3.637E3,1.675E3,2.76E2,2.19E3,1.912E3,2.85E2,3.2E1,9.89E2,7.36E2,1.22E2,1.8E1,2.099E3,1.51E2,3.29E2,2.7E1,1.476E3,2.27E2,1.13E2,1.09E2,1E0,5.3E1,8.2E1,9.7E1,1.054E3,1.95E2,1.76E2,3.8E1,5.1E1,1.25E2,1.59E2,2.1E1,1.58E2,6.1E1,2.39E2,4E1,1.4E1,2.8E1,9E0,2.24E2,5.9E1,4E1,1.7E2,3.4E1],"tree_param":{"num_deleted":"0","num_feature":"21","num_nodes":"123","size_leaf_vector":"1"}},{"base_weights":[9.618626E-2,-2.8286695E0,3.371889E1,-8.811815E0,9.68951E0,2.475508E1,6.0122032E1,-1.0897672E1,1.7666481E1,3.6681588E0,3.5421238E1,1.9087122E1,3.760906E1,4.8361546E1,7.489205E1,-1.3630729E1,8.776931E-1,1.3652025E1,3.655488E1,-4.0068008E-2,3.0050344E1,3.1273474E1,6.359073E1,1.6561462E1,3.943413E1,3.1600286E1,6.448607E1,3.8126404E1,6.1973454E1,6.465891E1,8.586024E1,-1.5327068E1,-2.066447E0,-7.7042675E0,1.1963378E1,1.0867089E1,2.974878E1,2.6603037E1,4.6402397E1,-3.7352767E0,2.1421873E1,2.7593082E1,6.571631E1,2.8354582E1,6.626744E1,5.8179012E1,8.8772095E1,1.3970872E1,2.7881208E1,2.9631025E1,4.587491E1,2.6984015E1,6.1904816E1,5.9485016E1,7.853385E0,3.49624E1,5.122098E1,5.4515903E1,8.67634E1,4.6160477E1,6.63871E1,8.1355675E1,8.704443E0,-1.3626845E0,-4.4010696E-1,-9.734318E-1,4.7506988E-1,-1.2002809E0,-2.4470796E-1,1.3786125E0,1.2825485E-1,6.138675E-1,1.9559593E0,1.3303437E0,3.0849092E0,1.2358731E0,2.3230062E0,3.275843E0,5.7873106E0,1.5226291E-1,-1.0424651E0,1.4503113E0,4.6974683E0,1.9594218E0,3.865347E0,4.574882E0,7.6010633E0,1.5237813E0,3.161505E0,4.822729E0,7.669253E0,3.9132104E0,5.5642295E0,6.654184E0,9.89335E0,9.242259E-1,2.025495E0,1.1047391E0,2.8698409E0,1.9076495E0,2.6782207E0,3.1806324E0,5.2420683E0,1.8060141E0,4.0548725E0,4.6970162E0,6.81082E0,4.438645E0,6.361084E0,2.6097214E0,3.9624975E0,2.680058E0,5.005844E0,4.9113812E0,2.9472723E0,3.1900177E0,7.1805367E0,4.8203435E0,2.7360098E0,5.091456E0,6.1666594E0,6.0275226E0,8.148113E0],"categories":[],"categories_nodes":[],"categories_segments":[],"categories_sizes":[],"default_left":[0,0,0,0,0,0,0,0,0,0,0,0,0,0,0,0,0,0,0,0,0,0,0,0,0,0,0,0,0,0,0,0,0,0,0,0,0,0,0,0,0,0,0,0,0,0,0,0,0,0,0,0,0,0,0,0,0,0,0,0,0,0,0,0,0,0,0,0,0,0,0,0,0,0,0,0,0,0,0,0,0,0,0,0,0,0,0,0,0,0,0,0,0,0,0,0,0,0,0,0,0,0,0,0,0,0,0,0,0,0,0,0,0,0,0,0,0,0,0,0,0,0,0],"id":11,"left_children":[1,3,5,7,9,11,13,15,17,19,21,23,25,27,29,31,33,35,37,39,41,43,45,47,49,51,53,55,57,59,61,63,65,67,69,71,73,75,77,79,81,83,85,87,89,91,93,95,97,99,101,103,105,107,-1,109,111,113,115,117,119,121,-1,-1,-1,-1,-1,-1,-1,-1,-1,-1,-1,-1,-1,-1,-1,-1,-1,-1,-1,-1,-1,-1,-1,-1,-1,-1,-1,-1,-1,-1,-1,-1,-1,-1,-1,-1,-1,-1,-1,-1,-1,-1,-1,-1,-1,-1,-1,-1,-1,-1,-1,-1,-1,-1,-1,-1,-1,-1,-1,-1,-1],"loss_changes":[6.3014295E6,4.415253E6,1.2121695E6,2.2030932E6,2.953642E6,2.7832E5,2.22018E5,1.189937E6,2.2038388E5,1.5114922E6,4.203895E5,1.3604331E5,1.8707612E5,9.8783375E4,5.88735E4,5.88653E5,6.628159E5,1.0744425E5,4.8746062E4,1.0744432E6,1.6505438E5,3.201795E5,5.7930375E4,6.9051625E4,1.7140562E4,1.3248794E5,3.0038562E4,1.5486125E4,5.25805E4,6.558125E3,1.9468375E4,4.387115E5,3.1057584E5,1.3311098E5,1.6592819E5,8.878217E4,4.028703E4,6.5034375E3,3.3115375E4,6.0581975E5,2.4334062E5,1.13374375E5,2.5055812E4,3.0183025E5,3.7078E4,3.7058375E4,5.332E3,5.2638375E4,4.898725E4,1.8500312E3,1.8430688E4,8.6006875E4,4.3448438E3,1.06570625E4,0E0,9.945406E3,1.3795531E4,2.702925E4,6.2455E3,2.8277383E3,3.106625E3,2.103475E4,0E0,0E0,0E0,0E0,0E0,0E0,0E0,0E0,0E0,0E0,0E0,0E0,0E0,0E0,0E0,0E0,0E0,0E0,0E0,0E0,0E0,0E0,0E0,0E0,0E0,0E0,0E0,0E0,0E0,0E0,0E0,0E0,0E0,0E0,0E0,0E0,0E0,0E0,0E0,0E0,0E0,0E0,0E0,0E0,0E0,0E0,0E0,0E0,0E0,0E0,0E0,0E0,0E0,0E0,0E0,0E0,0E0,0E0,0E0,0E0,0E0],"parents":[2147483647,0,0,1,1,2,2,3,3,4,4,5,5,6,6,7,7,8,8,9,9,10,10,11,11,12,12,13,13,14,14,15,15,16,16,17,17,18,18,19,19,20,20,21,21,22,22,23,23,24,24,25,25,26,26,27,27,28,28,29,29,30,30,31,31,32,32,33,33,34,34,35,35,36,36,37,37,38,38,39,39,40,40,41,41,42,42,43,43,44,44,45,45,46,46,47,47,48,48,49,49,50,50,51,51,52,52,53,53,55,55,56,56,57,57,58,58,59,59,60,60,61,61],"right_children":[2,4,6,8,10,12,14,16,18,20,22,24,26,28,30,32,34,36,38,40,42,44,46,48,50,52,54,56,58,60,62,64,66,68,70,72,74,76,78,80,82,84,86,88,90,92,94,96,98,100,102,104,106,108,-1,110,112,114,116,118,120,122,-1,-1,-1,-1,-1,-1,-1,-1,-1,-1,-1,-1,-1,-1,-1,-1,-1,-1,-1,-1,-1,-1,-1,-1,-1,-1,-1,-1,-1,-1,-1,-1,-1,-1,-1,-1,-1,-1,-1,-1,-1,-1,-1,-1,-1,-1,-1,-1,-1,-1,-1,-1,-1,-1,-1,-1,-1,-1,-1,-1,-1],"split_conditions":[1E0,2.47E2,1E0,1E0,1E0,2.58E2,1E0,1E0,1E0,1E0,1E0,1E0,1E0,2.13E2,1.964E2,1E0,1.45E2,1E0,1.286E2,1E0,1E0,1E0,1E0,1E0,1.01E2,1E0,1E0,1E0,1E0,2.77E1,1E0,1E0,1.16E2,6.2E1,1E0,1E0,1.05E2,3.5E1,4E0,1E0,1E0,1E0,1E0,4E0,1E0,3.14E2,1E0,1E0,8.47E1,4.48E1,1E0,1E0,1E0,1E0,7.853385E0,1E0,9.12E1,1E0,1.872E2,1.9E1,1E0,1E0,8.704443E0,-1.3626845E0,-4.4010696E-1,-9.734318E-1,4.7506988E-1,-1.2002809E0,-2.4470796E-1,1.3786125E0,1.2825485E-1,6.138675E-1,1.9559593E0,1.3303437E0,3.0849092E0,1.2358731E0,2.3230062E0,3.275843E0,5.7873106E0,1.5226291E-1,-1.0424651E0,1.4503113E0,4.6974683E0,1.9594218E0,3.865347E0,4.574882E0,7.6010633E0,1.5237813E0,3.161505E0,4.822729E0,7.669253E0,3.9132104E0,5.5642295E0,6.654184E0,9.89335E0,9.242259E-1,2.025495E0,1.1047391E0,2.8698409E0,1.9076495E0,2.6782207E0,3.1806324E0,5.2420683E0,1.8060141E0,4.0548725E0,4.6970162E0,6.81082E0,4.438645E0,6.361084E0,2.6097214E0,3.9624975E0,2.680058E0,5.005844E0,4.9113812E0,2.9472723E0,3.1900177E0,7.1805367E0,4.8203435E0,2.7360098E0,5.091456E0,6.1666594E0,6.0275226E0,8.148113E0],"split_indices":[14,0,12,15,4,0,15,4,12,9,9,15,4,0,1,9,0,7,1,7,15,15,7,4,0,9,9,4,4,1,9,7,0,0,11,4,0,0,5,11,15,7,12,5,12,0,15,7,1,1,4,7,15,7,0,9,1,11,1,0,4,4,0,0,0,0,0,0,0,0,0,0,0,0,0,0,0,0,0,0,0,0,0,0,0,0,0,0,0,0,0,0,0,0,0,0,0,0,0,0,0,0,0,0,0,0,0,0,0,0,0,0,0,0,0,0,0,0,0,0,0,0,0],"split_type":[0,0,0,0,0,0,0,0,0,0,0,0,0,0,0,0,0,0,0,0,0,0,0,0,0,0,0,0,0,0,0,0,0,0,0,0,0,0,0,0,0,0,0,0,0,0,0,0,0,0,0,0,0,0,0,0,0,0,0,0,0,0,0,0,0,0,0,0,0,0,0,0,0,0,0,0,0,0,0,0,0,0,0,0,0,0,0,0,0,0,0,0,0,0,0,0,0,0,0,0,0,0,0,0,0,0,0,0,0,0,0,0,0,0,0,0,0,0,0,0,0,0,0],"sum_hessian":[6.4075E4,5.8948E4,5.127E3,3.9885E4,1.9063E4,3.829E3,1.298E3,3.6973E4,2.912E3,1.5449E4,3.614E3,2.659E3,1.17E3,7.25E2,5.73E2,3.0008E4,6.965E3,2.403E3,5.09E2,1.3546E4,1.903E3,3.152E3,4.62E2,2.367E3,2.92E2,9.58E2,2.12E2,4.16E2,3.09E2,3E2,2.73E2,2.6169E4,3.839E3,3.926E3,3.039E3,2.05E3,3.53E2,2.55E2,2.54E2,1.1557E4,1.989E3,1.782E3,1.21E2,2.911E3,2.41E2,3.83E2,7.9E1,1.928E3,4.39E2,1.18E2,1.74E2,8.33E2,1.25E2,1.87E2,2.5E1,3.38E2,7.8E1,2.4E2,6.9E1,2.8E1,2.72E2,2.32E2,4.1E1,2.2296E4,3.873E3,1.697E3,2.142E3,1.526E3,2.4E3,2.014E3,1.025E3,1.661E3,3.89E2,1.43E2,2.1E2,4.7E1,2.08E2,2.12E2,4.2E1,7.194E3,4.363E3,1.829E3,1.6E2,1.552E3,2.3E2,9.6E1,2.5E1,1.589E3,1.322E3,2.03E2,3.8E1,2.14E2,1.69E2,7.1E1,8E0,1.591E3,3.37E2,1.6E2,2.79E2,5E1,6.8E1,1.35E2,3.9E1,7.04E2,1.29E2,1.13E2,1.2E1,1.59E2,2.8E1,2.94E2,4.4E1,3.2E1,4.6E1,1.71E2,6.9E1,5E0,6.4E1,1.1E1,1.7E1,2.22E2,5E1,1.83E2,4.9E1],"tree_param":{"num_deleted":"0","num_feature":"21","num_nodes":"123","size_leaf_vector":"1"}},{"base_weights":[6.709899E-2,-2.5964642E0,3.0918934E1,-7.7114406E0,9.865136E0,2.3045315E1,5.4269794E1,-9.691826E0,1.7442045E1,-2.4730566E0,2.2395203E1,1.6522238E1,3.327274E1,4.3421043E1,6.789777E1,-1.4961729E1,-4.06959E0,1.3451777E1,3.602593E1,-6.359722E0,2.3742369E1,1.8694101E1,4.8442795E1,1.4343737E1,3.4457256E1,2.2067411E1,4.516618E1,3.1516281E1,5.3631626E1,6.426617E1,9.117462E1,-1.6564516E1,-2.92866E0,-1.0375492E1,3.456309E0,1.0508414E1,3.83474E1,2.5668186E1,5.065376E1,-1.1080464E1,2.1983839E1,1.6686108E1,3.3461845E1,1.3936974E1,4.8816654E1,3.906584E1,6.066841E1,1.2306801E1,2.9223661E1,3.234879E1,5.3051975E1,1.8375235E1,4.9171368E1,5.2976574E1,2.8921125E1,2.8849304E1,4.8377804E1,4.0007557E1,6.9505486E1,5.638272E1,7.254371E1,5.505075E1,1.0180282E2,-1.4933317E0,-3.3123663E-1,-7.8116417E-1,4.2917675E-1,-1.390392E0,-6.2185055E-1,4.109846E-2,1.859761E0,5.7003593E-1,1.9725327E0,2.0078824E0,4.312578E0,1.5496107E0,2.7757268E0,3.4088833E0,6.57774E0,-1.0528921E0,1.237487E0,1.5948675E0,4.407267E0,1.2330511E0,4.4709363E0,2.4468596E0,5.216182E0,4.482184E-1,1.9728817E0,3.1279328E0,4.855257E0,2.5674133E0,3.98317E0,4.212863E0,6.2448754E0,8.1285465E-1,2.1211889E0,6.67375E-1,3.0541081E0,2.0120718E0,2.9840825E0,1.6777608E0,4.673549E0,1.0968624E0,3.5761735E0,3.5892968E0,6.3645205E0,3.8276753E0,5.7526245E0,1.7237331E0,3.2450235E0,2.09659E0,3.473244E0,1.4756423E0,4.072791E0,3.7372155E0,2.0816593E0,5.0522895E0,7.3962336E0,4.1509886E0,6.35783E0,5.1473236E0,7.265151E0,8.109635E-1,4.779073E0,4.2216763E0,8.364774E0],"categories":[],"categories_nodes":[],"categories_segments":[],"categories_sizes":[],"default_left":[0,0,0,0,0,0,0,0,0,0,0,0,0,0,0,0,0,0,0,0,0,0,0,0,0,0,0,0,0,0,0,0,0,0,0,0,0,0,0,0,0,0,0,0,0,0,0,0,0,0,0,0,0,0,0,0,0,0,0,0,0,0,0,0,0,0,0,0,0,0,0,0,0,0,0,0,0,0,0,0,0,0,0,0,0,0,0,0,0,0,0,0,0,0,0,0,0,0,0,0,0,0,0,0,0,0,0,0,0,0,0,0,0,0,0,0,0,0,0,0,0,0,0,0,0,0,0],"id":12,"left_children":[1,3,5,7,9,11,13,15,17,19,21,23,25,27,29,31,33,35,37,39,41,43,45,47,49,51,53,55,57,59,61,63,65,67,69,71,73,75,77,79,81,83,85,87,89,91,93,95,97,99,101,103,105,107,109,111,113,115,117,119,121,123,125,-1,-1,-1,-1,-1,-1,-1,-1,-1,-1,-1,-1,-1,-1,-1,-1,-1,-1,-1,-1,-1,-1,-1,-1,-1,-1,-1,-1,-1,-1,-1,-1,-1,-1,-1,-1,-1,-1,-1,-1,-1,-1,-1,-1,-1,-1,-1,-1,-1,-1,-1,-1,-1,-1,-1,-1,-1,-1,-1,-1,-1,-1,-1,-1],"loss_changes":[5.255881E6,3.752879E6,9.33288E5,2.0795375E6,2.648944E6,2.5316462E5,1.864435E5,1.1464782E6,2.2546469E5,8.798744E5,8.18631E5,9.030781E4,1.9624288E5,8.534275E4,4.198575E4,3.85179E5,8.886316E5,1.8352194E5,8.0212875E4,1.0064394E6,7.5911875E4,1.0661642E6,1.188035E5,6.2502125E4,8.1246562E3,7.555194E4,8.9441E4,1.3579125E4,8.0265625E4,2.808075E4,2.2806625E4,4.602605E5,1.3322327E5,1.8557162E5,4.9714612E5,1.0732464E5,5.3276812E4,1.7352969E4,5.2860562E4,3.5633762E5,7.1722125E4,3.1474578E4,4.0728812E4,5.7464425E5,1.1474425E5,4.3344188E4,5.9536875E4,5.540928E4,4.6230938E4,7.189047E3,2.907289E3,8.21548E4,8.334594E3,4.347275E4,1.9301016E4,1.002225E4,2.39575E3,1.83925E4,1.9814812E4,2.2552625E4,2.96735E4,3.3946992E3,2.0520625E3,0E0,0E0,0E0,0E0,0E0,0E0,0E0,0E0,0E0,0E0,0E0,0E0,0E0,0E0,0E0,0E0,0E0,0E0,0E0,0E0,0E0,0E0,0E0,0E0,0E0,0E0,0E0,0E0,0E0,0E0,0E0,0E0,0E0,0E0,0E0,0E0,0E0,0E0,0E0,0E0,0E0,0E0,0E0,0E0,0E0,0E0,0E0,0E0,0E0,0E0,0E0,0E0,0E0,0E0,0E0,0E0,0E0,0E0,0E0,0E0,0E0,0E0,0E0,0E0],"parents":[2147483647,0,0,1,1,2,2,3,3,4,4,5,5,6,6,7,7,8,8,9,9,10,10,11,11,12,12,13,13,14,14,15,15,16,16,17,17,18,18,19,19,20,20,21,21,22,22,23,23,24,24,25,25,26,26,27,27,28,28,29,29,30,30,31,31,32,32,33,33,34,34,35,35,36,36,37,37,38,38,39,39,40,40,41,41,42,42,43,43,44,44,45,45,46,46,47,47,48,48,49,49,50,50,51,51,52,52,53,53,54,54,55,55,56,56,57,57,58,58,59,59,60,60,61,61,62,62],"right_children":[2,4,6,8,10,12,14,16,18,20,22,24,26,28,30,32,34,36,38,40,42,44,46,48,50,52,54,56,58,60,62,64,66,68,70,72,74,76,78,80,82,84,86,88,90,92,94,96,98,100,102,104,106,108,110,112,114,116,118,120,122,124,126,-1,-1,-1,-1,-1,-1,-1,-1,-1,-1,-1,-1,-1,-1,-1,-1,-1,-1,-1,-1,-1,-1,-1,-1,-1,-1,-1,-1,-1,-1,-1,-1,-1,-1,-1,-1,-1,-1,-1,-1,-1,-1,-1,-1,-1,-1,-1,-1,-1,-1,-1,-1,-1,-1,-1,-1,-1,-1,-1,-1,-1,-1,-1,-1],"split_conditions":[1E0,2.58E2,1E0,1E0,5.1E1,2.27E2,1E0,5.1E1,1E0,1E0,1E0,1E0,5.1E1,1.71E2,1E0,1E0,1.45E2,1E0,1.57E2,1E0,4E0,1E0,4E0,1E0,1E0,1E0,1E0,1E0,5.2E1,5.1E1,9.3E1,1E0,1.42E2,4.7E1,1E0,8.1E1,1.48E2,2E0,4E0,1E0,1E0,1E0,1E0,4E0,4E0,8.1E1,3.3E2,1E0,7.5E1,4.3E1,8.06E1,1E0,1E0,1E0,8.1E1,1E0,3.1E1,1E0,3.13E2,1E0,2.87E2,1.45E1,1.5E1,-1.4933317E0,-3.3123663E-1,-7.8116417E-1,4.2917675E-1,-1.390392E0,-6.2185055E-1,4.109846E-2,1.859761E0,5.7003593E-1,1.9725327E0,2.0078824E0,4.312578E0,1.5496107E0,2.7757268E0,3.4088833E0,6.57774E0,-1.0528921E0,1.237487E0,1.5948675E0,4.407267E0,1.2330511E0,4.4709363E0,2.4468596E0,5.216182E0,4.482184E-1,1.9728817E0,3.1279328E0,4.855257E0,2.5674133E0,3.98317E0,4.212863E0,6.2448754E0,8.1285465E-1,2.1211889E0,6.67375E-1,3.0541081E0,2.0120718E0,2.9840825E0,1.6777608E0,4.673549E0,1.0968624E0,3.5761735E0,3.5892968E0,6.3645205E0,3.8276753E0,5.7526245E0,1.7237331E0,3.2450235E0,2.09659E0,3.473244E0,1.4756423E0,4.072791E0,3.7372155E0,2.0816593E0,5.0522895E0,7.3962336E0,4.1509886E0,6.35783E0,5.1473236E0,7.265151E0,8.109635E-1,4.779073E0,4.2216763E0,8.364774E0],"split_indices":[14,0,12,15,2,0,15,2,12,10,9,15,2,0,10,10,0,16,0,9,5,10,5,10,10,9,11,9,2,2,0,9,0,0,10,2,0,5,5,15,15,12,15,5,5,2,0,9,0,2,1,10,15,9,2,10,0,11,0,9,0,1,2,0,0,0,0,0,0,0,0,0,0,0,0,0,0,0,0,0,0,0,0,0,0,0,0,0,0,0,0,0,0,0,0,0,0,0,0,0,0,0,0,0,0,0,0,0,0,0,0,0,0,0,0,0,0,0,0,0,0,0,0,0,0,0,0],"split_type":[0,0,0,0,0,0,0,0,0,0,0,0,0,0,0,0,0,0,0,0,0,0,0,0,0,0,0,0,0,0,0,0,0,0,0,0,0,0,0,0,0,0,0,0,0,0,0,0,0,0,0,0,0,0,0,0,0,0,0,0,0,0,0,0,0,0,0,0,0,0,0,0,0,0,0,0,0,0,0,0,0,0,0,0,0,0,0,0,0,0,0,0,0,0,0,0,0,0,0,0,0,0,0,0,0,0,0,0,0,0,0,0,0,0,0,0,0,0,0,0,0,0,0,0,0,0,0],"sum_hessian":[6.3957E4,5.8875E4,5.082E3,4.1742E4,1.7133E4,3.802E3,1.28E3,3.8696E4,3.046E3,8.633E3,8.5E3,2.323E3,1.479E3,7.15E2,5.65E2,1.9973E4,1.8723E4,2.509E3,5.37E2,7.519E3,1.114E3,7.444E3,1.056E3,2.073E3,2.5E2,7.63E2,7.16E2,3.32E2,3.83E2,4.92E2,7.3E1,1.7625E4,2.348E3,1.0187E4,8.536E3,2.245E3,2.64E2,3.16E2,2.21E2,6.446E3,1.073E3,6.47E2,4.67E2,6.43E3,1.014E3,6E2,4.56E2,1.825E3,2.48E2,2.27E2,2.3E1,6.73E2,9E1,4.82E2,2.34E2,2.89E2,4.3E1,2.08E2,1.75E2,2.56E2,2.36E2,1.8E1,5.5E1,1.5074E4,2.551E3,1.287E3,1.061E3,2.758E3,7.429E3,7.432E3,1.104E3,1.813E3,4.32E2,1.44E2,1.2E2,1.88E2,1.28E2,1.78E2,4.3E1,5.978E3,4.68E2,1.012E3,6.1E1,6.28E2,1.9E1,4.3E2,3.7E1,3.619E3,2.811E3,5.6E2,4.54E2,3.66E2,2.34E2,3.15E2,1.41E2,1.587E3,2.38E2,7.5E1,1.73E2,9.5E1,1.32E2,4E0,1.9E1,5.73E2,1E2,8.1E1,9E0,3.82E2,1E2,1.45E2,8.9E1,2.47E2,4.2E1,4E0,3.9E1,1.39E2,6.9E1,1.4E2,3.5E1,2.17E2,3.9E1,1.66E2,7E1,2E0,1.6E1,4E0,5.1E1],"tree_param":{"num_deleted":"0","num_feature":"21","num_nodes":"127","size_leaf_vector":"1"}},{"base_weights":[8.512315E-2,-1.89078E0,3.7689564E1,-6.491211E0,9.634346E0,2.778971E1,5.723343E1,-7.996638E0,1.6682234E1,-1.7416581E0,2.1528376E1,1.8851547E1,4.2782978E1,4.537112E1,6.959678E1,-1.0557895E1,2.9117877E0,1.3822104E1,2.9029322E1,-5.249829E0,2.2902597E1,1.805161E1,4.607951E1,1.2557427E1,2.6003088E1,3.6252403E1,6.884116E1,3.506931E1,4.8461563E1,5.656631E1,8.216793E1,-1.1864872E1,9.171862E0,-5.721668E0,1.2345574E1,1.161442E1,2.970181E1,1.8206339E1,3.722564E1,-1.1529794E1,3.3118868E0,1.9345772E1,4.1377327E1,1.0868791E1,2.9283232E1,4.1734287E1,7.063957E1,9.019384E0,2.4049725E1,1.7848915E1,3.5454315E1,2.0626E1,4.1107224E1,6.3087902E1,7.4639688E0,3.0146093E1,4.444366E1,3.726269E1,5.5158344E1,5.1738277E1,8.530435E1,7.671854E1,1.1578627E2,-1.0859038E0,3.3226535E-2,5.187202E-1,2.6346314E0,-1.085689E0,-1.7959417E-1,7.552704E-1,2.553639E0,7.7002823E-1,2.2183454E0,1.3526851E0,3.091758E0,5.943673E-1,1.7178009E0,2.699265E0,4.4712925E0,-1.0804554E0,1.0670478E0,9.002605E-2,2.1329782E0,1.3456745E0,3.1238103E0,3.1213982E0,6.508377E0,2.6837578E-1,1.6772752E0,2.0306737E0,4.104722E0,2.735812E0,4.4568863E0,4.234852E0,6.6584787E0,4.0490615E-1,1.4077146E0,1.7109277E0,3.1221135E0,4.1463163E-1,1.716392E0,2.5769997E0,4.474749E0,9.748501E-1,2.7093468E0,4.5476604E0,2.8983233E0,4.434222E0,5.9213567E0,1.6202611E0,2.8491302E0,3.6478856E0,-1.6250092E-1,2.572608E0,3.7876263E0,3.7099686E0,4.8032846E0,3.875036E0,5.798998E0,1.7106755E0,7.074838E0,5.845614E0,8.644528E0,7.010691E0,1.1000506E1],"categories":[],"categories_nodes":[],"categories_segments":[],"categories_sizes":[],"default_left":[0,0,0,0,0,0,0,0,0,0,0,0,0,0,0,0,0,0,0,0,0,0,0,0,0,0,0,0,0,0,0,0,0,0,0,0,0,0,0,0,0,0,0,0,0,0,0,0,0,0,0,0,0,0,0,0,0,0,0,0,0,0,0,0,0,0,0,0,0,0,0,0,0,0,0,0,0,0,0,0,0,0,0,0,0,0,0,0,0,0,0,0,0,0,0,0,0,0,0,0,0,0,0,0,0,0,0,0,0,0,0,0,0,0,0,0,0,0,0,0,0,0,0,0,0],"id":13,"left_children":[1,3,5,7,9,11,13,15,17,19,21,23,25,27,29,31,33,35,37,39,41,43,45,47,49,51,53,55,57,59,61,63,65,67,69,71,73,75,77,79,81,83,85,87,89,91,93,95,97,99,101,103,105,107,-1,109,111,113,115,117,119,121,123,-1,-1,-1,-1,-1,-1,-1,-1,-1,-1,-1,-1,-1,-1,-1,-1,-1,-1,-1,-1,-1,-1,-1,-1,-1,-1,-1,-1,-1,-1,-1,-1,-1,-1,-1,-1,-1,-1,-1,-1,-1,-1,-1,-1,-1,-1,-1,-1,-1,-1,-1,-1,-1,-1,-1,-1,-1,-1,-1,-1,-1,-1],"loss_changes":[4.7673345E6,3.2320888E6,6.181305E5,1.5200435E6,2.3531535E6,2.843715E5,1.5464625E5,1.1430548E6,9.3464125E4,7.687163E5,7.248865E5,5.9765375E4,1.3262325E5,1.58745E4,8.135125E4,8.54462E5,6.3372194E5,7.537897E4,4.3587812E4,4.1850888E5,7.200769E4,6.0062775E5,1.095335E5,2.8733188E4,4.7456938E4,4.7477062E4,1.63470625E4,4.7061094E3,2.9593188E4,3.179975E4,3.9665E4,6.52123E5,1.312872E5,1.10850734E5,2.1110088E5,6.0570875E4,2.9443656E4,7.478586E3,1.652225E4,2.2080281E5,1.6815156E5,4.5654875E4,1.3618344E4,3.4476306E5,2.482265E5,9.2688375E4,3.0592188E4,1.844679E4,5.826125E3,1.5280773E4,1.7319312E4,1.6686219E4,3.5176625E4,6.8644688E3,0E0,4.0930938E3,2.4006094E3,6.7645938E3,8.4524375E3,1.1965125E4,5.3141562E3,1.8515125E4,9.3515E3,0E0,0E0,0E0,0E0,0E0,0E0,0E0,0E0,0E0,0E0,0E0,0E0,0E0,0E0,0E0,0E0,0E0,0E0,0E0,0E0,0E0,0E0,0E0,0E0,0E0,0E0,0E0,0E0,0E0,0E0,0E0,0E0,0E0,0E0,0E0,0E0,0E0,0E0,0E0,0E0,0E0,0E0,0E0,0E0,0E0,0E0,0E0,0E0,0E0,0E0,0E0,0E0,0E0,0E0,0E0,0E0,0E0,0E0,0E0,0E0,0E0,0E0],"parents":[2147483647,0,0,1,1,2,2,3,3,4,4,5,5,6,6,7,7,8,8,9,9,10,10,11,11,12,12,13,13,14,14,15,15,16,16,17,17,18,18,19,19,20,20,21,21,22,22,23,23,24,24,25,25,26,26,27,27,28,28,29,29,30,30,31,31,32,32,33,33,34,34,35,35,36,36,37,37,38,38,39,39,40,40,41,41,42,42,43,43,44,44,45,45,46,46,47,47,48,48,49,49,50,50,51,51,52,52,53,53,55,55,56,56,57,57,58,58,59,59,60,60,61,61,62,62],"right_children":[2,4,6,8,10,12,14,16,18,20,22,24,26,28,30,32,34,36,38,40,42,44,46,48,50,52,54,56,58,60,62,64,66,68,70,72,74,76,78,80,82,84,86,88,90,92,94,96,98,100,102,104,106,108,-1,110,112,114,116,118,120,122,124,-1,-1,-1,-1,-1,-1,-1,-1,-1,-1,-1,-1,-1,-1,-1,-1,-1,-1,-1,-1,-1,-1,-1,-1,-1,-1,-1,-1,-1,-1,-1,-1,-1,-1,-1,-1,-1,-1,-1,-1,-1,-1,-1,-1,-1,-1,-1,-1,-1,-1,-1,-1,-1,-1,-1,-1,-1,-1,-1,-1,-1,-1],"split_conditions":[1E0,2.6E2,1E0,1E0,5.1E1,2.35E2,1.94E2,8.1E1,8.1E1,1E0,1E0,1.31E2,8.1E1,1E0,5.1E1,1E0,1.42E2,1E0,1.11E2,4E0,1E0,8.1E1,1E0,1E0,5.1E1,6E0,1E0,1.313E2,1E0,1E0,1E0,1E0,1E0,5E1,1E0,1E0,1.25E2,3.4E1,1E0,1E0,1E0,1E0,1E0,4E0,1E0,8.1E1,2.99E2,1E0,1E0,6E0,1E0,4.9E1,1E1,3.03E2,7.4639688E0,1E1,9.9E1,1.286E2,7.1E1,1E0,2E0,3.39E2,2.75E2,-1.0859038E0,3.3226535E-2,5.187202E-1,2.6346314E0,-1.085689E0,-1.7959417E-1,7.552704E-1,2.553639E0,7.7002823E-1,2.2183454E0,1.3526851E0,3.091758E0,5.943673E-1,1.7178009E0,2.699265E0,4.4712925E0,-1.0804554E0,1.0670478E0,9.002605E-2,2.1329782E0,1.3456745E0,3.1238103E0,3.1213982E0,6.508377E0,2.6837578E-1,1.6772752E0,2.0306737E0,4.104722E0,2.735812E0,4.4568863E0,4.234852E0,6.6584787E0,4.0490615E-1,1.4077146E0,1.7109277E0,3.1221135E0,4.1463163E-1,1.716392E0,2.5769997E0,4.474749E0,9.748501E-1,2.7093468E0,4.5476604E0,2.8983233E0,4.434222E0,5.9213567E0,1.6202611E0,2.8491302E0,3.6478856E0,-1.6250092E-1,2.572608E0,3.7876263E0,3.7099686E0,4.8032846E0,3.875036E0,5.798998E0,1.7106755E0,7.074838E0,5.845614E0,8.644528E0,7.010691E0,1.1000506E1],"split_indices":[12,0,13,14,2,0,0,2,2,10,10,0,2,14,2,15,0,10,0,5,7,2,7,14,2,8,10,1,15,7,10,10,16,0,10,15,0,0,7,14,15,20,16,5,7,2,0,15,15,8,10,2,8,0,0,8,2,1,0,10,8,0,0,0,0,0,0,0,0,0,0,0,0,0,0,0,0,0,0,0,0,0,0,0,0,0,0,0,0,0,0,0,0,0,0,0,0,0,0,0,0,0,0,0,0,0,0,0,0,0,0,0,0,0,0,0,0,0,0,0,0,0,0,0,0],"split_type":[0,0,0,0,0,0,0,0,0,0,0,0,0,0,0,0,0,0,0,0,0,0,0,0,0,0,0,0,0,0,0,0,0,0,0,0,0,0,0,0,0,0,0,0,0,0,0,0,0,0,0,0,0,0,0,0,0,0,0,0,0,0,0,0,0,0,0,0,0,0,0,0,0,0,0,0,0,0,0,0,0,0,0,0,0,0,0,0,0,0,0,0,0,0,0,0,0,0,0,0,0,0,0,0,0,0,0,0,0,0,0,0,0,0,0,0,0,0,0,0,0,0,0,0,0],"sum_hessian":[6.4159E4,6.0957E4,3.202E3,4.3567E4,1.739E4,2.127E3,1.075E3,4.091E4,2.657E3,8.889E3,8.501E3,1.334E3,7.93E2,5.51E2,5.24E2,3.3131E4,7.779E3,2.159E3,4.98E2,7.782E3,1.107E3,7.448E3,1.053E3,7.11E2,6.23E2,6.36E2,1.57E2,1.3E2,4.21E2,2.6E2,2.64E2,3.1073E4,2.058E3,4.062E3,3.717E3,1.897E3,2.62E2,2.16E2,2.82E2,4.489E3,3.293E3,9.3E2,1.77E2,4.544E3,2.904E3,8.97E2,1.56E2,5.45E2,1.66E2,3.36E2,2.87E2,1.52E2,4.84E2,1.3E2,2.7E1,8.8E1,4.2E1,1.6E2,2.61E2,2.25E2,3.5E1,2.3E2,3.4E1,2.7277E4,3.796E3,1.85E3,2.08E2,1.246E3,2.816E3,3.238E3,4.79E2,1.69E3,2.07E2,1.09E2,1.53E2,5.1E1,1.65E2,2.4E2,4.2E1,4.159E3,3.3E2,3.012E3,2.81E2,8.26E2,1.04E2,1.69E2,8E0,2.606E3,1.938E3,2.469E3,4.35E2,5.85E2,3.12E2,6.7E1,8.9E1,3.74E2,1.71E2,1.43E2,2.3E1,7.5E1,2.61E2,2.5E2,3.7E1,9.4E1,5.8E1,1.12E2,3.72E2,8E1,5E1,3.3E1,5.5E1,4.1E1,1E0,1.09E2,5.1E1,9.7E1,1.64E2,1.97E2,2.8E1,2E0,3.3E1,2.09E2,2.1E1,1.7E1,1.7E1],"tree_param":{"num_deleted":"0","num_feature":"21","num_nodes":"125","size_leaf_vector":"1"}},{"base_weights":[-1.7795738E-2,-2.2948754E0,2.643026E1,-9.803506E0,3.805481E0,1.7871685E1,3.3503063E1,-1.3187715E1,-6.209082E0,-5.0168896E0,1.2981858E1,1.6307812E1,2.877287E1,2.3700413E1,4.374334E1,-1.5777128E1,-9.821173E0,-1.1324312E1,-2.145824E0,-7.836036E0,1.4757712E1,1.866044E1,1.5632577E0,2.843467E1,1.4990712E1,2.276616E1,4.030389E1,2.0516186E1,4.7168674E1,3.9965694E1,6.8540405E1,-1.6762037E1,-9.048905E0,-1.3766787E1,-6.086343E0,-1.5080778E1,-9.001007E0,1.3754402E0,-9.178586E0,-1.0464534E1,7.643012E0,1.044869E1,2.567077E1,1.3510039E1,3.1774788E1,-4.687715E0,9.667701E0,2.15473E1,3.3734245E1,1.0231499E1,1.796405E1,7.219207E0,2.58497E1,3.4333313E1,5.5287647E1,2.5533773E1,1.1284179E1,4.2152214E1,6.9932556E1,3.291029E1,5.0743553E1,6.0111507E1,7.984072E1,-1.2116774E0,-1.5451815E0,-1.2277339E0,-4.350894E-1,-1.1280882E0,7.761583E-1,-6.220093E-1,3.818975E-1,-1.2263718E0,7.0191795E-1,-5.680003E-1,-1.0176015E0,-2.1618281E-1,5.417547E-1,-1.034239E0,-3.4395906E-1,-1.028545E0,9.1797195E-2,4.7536537E-1,3.3961399E0,6.1733234E-1,1.8171419E0,1.5167288E0,2.7522583E0,5.4984754E-1,1.7563297E0,2.2399852E0,4.4027967E0,-8.104279E-1,2.9541966E-1,3.6632046E-1,1.6075851E0,1.421714E0,2.5653708E0,1.9763567E0,2.986401E0,6.718445E-1,1.3438683E0,1.0549694E0,1.8464408E0,2.6718478E0,3.5623103E-1,2.3671913E0,1.5616685E0,2.8816254E0,1.6217471E0,1.0448978E0,4.5163403E0,1.513042E0,2.8849685E0,6.7697835E-1,2.1165857E0,2.0044973E0,3.6496553E0,4.5297575E0,7.4576244E0,2.3224692E0,4.3398185E0,3.3295465E0,4.7241173E0,5.016394E0,3.2158225E0,5.6844907E0,7.9653654E0],"categories":[],"categories_nodes":[],"categories_segments":[],"categories_sizes":[],"default_left":[0,0,0,0,0,0,0,0,0,0,0,0,0,0,0,0,0,0,0,0,0,0,0,0,0,0,0,0,0,0,0,0,0,0,0,0,0,0,0,0,0,0,0,0,0,0,0,0,0,0,0,0,0,0,0,0,0,0,0,0,0,0,0,0,0,0,0,0,0,0,0,0,0,0,0,0,0,0,0,0,0,0,0,0,0,0,0,0,0,0,0,0,0,0,0,0,0,0,0,0,0,0,0,0,0,0,0,0,0,0,0,0,0,0,0,0,0,0,0,0,0,0,0,0,0,0,0],"id":14,"left_children":[1,3,5,7,9,11,13,15,17,19,21,23,25,27,29,31,33,35,37,39,41,43,45,47,49,51,53,55,57,59,61,63,65,67,69,71,73,75,77,79,81,83,85,87,89,91,93,95,97,99,101,103,105,107,109,111,113,115,117,119,121,123,125,-1,-1,-1,-1,-1,-1,-1,-1,-1,-1,-1,-1,-1,-1,-1,-1,-1,-1,-1,-1,-1,-1,-1,-1,-1,-1,-1,-1,-1,-1,-1,-1,-1,-1,-1,-1,-1,-1,-1,-1,-1,-1,-1,-1,-1,-1,-1,-1,-1,-1,-1,-1,-1,-1,-1,-1,-1,-1,-1,-1,-1,-1,-1,-1],"loss_changes":[3.8548392E6,2.699528E6,3.0654625E5,3.21274E5,2.632557E6,3.8707188E4,2.7772375E5,1.1845375E5,2.6628747E5,9.243534E5,1.033479E6,3.171E4,1.8961062E4,1.05221125E5,1.24377E5,5.0800875E4,8.7125E4,4.9366125E4,1.7687864E5,5.90484E5,9.702569E4,7.1857825E5,2.6829347E5,6.4271562E3,2.5528125E4,8.969867E3,6.779578E3,5.7753812E4,1.6351E4,8.805975E4,1.21549375E4,2.737225E4,2.22895E4,2.2709625E4,5.5827938E4,1.2993469E4,2.4703688E4,1.0476409E5,4.3538297E4,3.4461488E5,1.2449845E5,4.958708E4,3.3634125E4,4.2829712E5,2.6196625E5,1.3641662E5,1.222653E5,2.925621E3,2.6168984E3,8.2989375E3,2.6996188E4,2.241114E3,3.1860781E3,9.777656E2,5.434453E2,5.5849062E4,1.8744414E4,7.2178125E3,3.7109219E3,5.76935E4,3.2790875E4,2.95375E3,5.5751875E3,0E0,0E0,0E0,0E0,0E0,0E0,0E0,0E0,0E0,0E0,0E0,0E0,0E0,0E0,0E0,0E0,0E0,0E0,0E0,0E0,0E0,0E0,0E0,0E0,0E0,0E0,0E0,0E0,0E0,0E0,0E0,0E0,0E0,0E0,0E0,0E0,0E0,0E0,0E0,0E0,0E0,0E0,0E0,0E0,0E0,0E0,0E0,0E0,0E0,0E0,0E0,0E0,0E0,0E0,0E0,0E0,0E0,0E0,0E0,0E0,0E0,0E0,0E0,0E0],"parents":[2147483647,0,0,1,1,2,2,3,3,4,4,5,5,6,6,7,7,8,8,9,9,10,10,11,11,12,12,13,13,14,14,15,15,16,16,17,17,18,18,19,19,20,20,21,21,22,22,23,23,24,24,25,25,26,26,27,27,28,28,29,29,30,30,31,31,32,32,33,33,34,34,35,35,36,36,37,37,38,38,39,39,40,40,41,41,42,42,43,43,44,44,45,45,46,46,47,47,48,48,49,49,50,50,51,51,52,52,53,53,54,54,55,55,56,56,57,57,58,58,59,59,60,60,61,61,62,62],"right_children":[2,4,6,8,10,12,14,16,18,20,22,24,26,28,30,32,34,36,38,40,42,44,46,48,50,52,54,56,58,60,62,64,66,68,70,72,74,76,78,80,82,84,86,88,90,92,94,96,98,100,102,104,106,108,110,112,114,116,118,120,122,124,126,-1,-1,-1,-1,-1,-1,-1,-1,-1,-1,-1,-1,-1,-1,-1,-1,-1,-1,-1,-1,-1,-1,-1,-1,-1,-1,-1,-1,-1,-1,-1,-1,-1,-1,-1,-1,-1,-1,-1,-1,-1,-1,-1,-1,-1,-1,-1,-1,-1,-1,-1,-1,-1,-1,-1,-1,-1,-1,-1,-1,-1,-1,-1,-1],"split_conditions":[1E0,1.67E2,1.71E2,5.1E1,5.1E1,1E0,5.1E1,4E0,7.9E1,1E0,1E0,1E0,1.12E2,1E0,1E0,1E0,8.6E1,3.7E1,1E0,1E0,3.09E2,3.05E2,4E0,1.3E1,7.2E1,3E1,7.7E1,1E0,1E0,8.1E1,2.786E2,1E0,6.8E1,1E0,1E0,1E0,1E0,4E0,4E0,1E0,1E0,1E0,4E0,4E0,1E0,8.1E1,2.95E2,1E0,3.7E1,8.1E1,4E0,1E0,9E0,6E0,8.47E1,1.7E1,1E0,2.03E2,2.92E2,1E0,2.69E2,2.61E2,8.7E1,-1.2116774E0,-1.5451815E0,-1.2277339E0,-4.350894E-1,-1.1280882E0,7.761583E-1,-6.220093E-1,3.818975E-1,-1.2263718E0,7.0191795E-1,-5.680003E-1,-1.0176015E0,-2.1618281E-1,5.417547E-1,-1.034239E0,-3.4395906E-1,-1.028545E0,9.1797195E-2,4.7536537E-1,3.3961399E0,6.1733234E-1,1.8171419E0,1.5167288E0,2.7522583E0,5.4984754E-1,1.7563297E0,2.2399852E0,4.4027967E0,-8.104279E-1,2.9541966E-1,3.6632046E-1,1.6075851E0,1.421714E0,2.5653708E0,1.9763567E0,2.986401E0,6.718445E-1,1.3438683E0,1.0549694E0,1.8464408E0,2.6718478E0,3.5623103E-1,2.3671913E0,1.5616685E0,2.8816254E0,1.6217471E0,1.0448978E0,4.5163403E0,1.513042E0,2.8849685E0,6.7697835E-1,2.1165857E0,2.0044973E0,3.6496553E0,4.5297575E0,7.4576244E0,2.3224692E0,4.3398185E0,3.3295465E0,4.7241173E0,5.016394E0,3.2158225E0,5.6844907E0,7.9653654E0],"split_indices":[14,0,0,2,2,9,2,5,0,9,11,5,0,9,9,9,0,0,11,7,0,0,5,8,0,0,2,11,7,2,1,11,0,16,9,16,11,5,5,17,16,17,5,5,7,2,0,16,2,2,5,5,8,5,1,8,7,0,0,7,0,1,2,0,0,0,0,0,0,0,0,0,0,0,0,0,0,0,0,0,0,0,0,0,0,0,0,0,0,0,0,0,0,0,0,0,0,0,0,0,0,0,0,0,0,0,0,0,0,0,0,0,0,0,0,0,0,0,0,0,0,0,0,0,0,0,0],"split_type":[0,0,0,0,0,0,0,0,0,0,0,0,0,0,0,0,0,0,0,0,0,0,0,0,0,0,0,0,0,0,0,0,0,0,0,0,0,0,0,0,0,0,0,0,0,0,0,0,0,0,0,0,0,0,0,0,0,0,0,0,0,0,0,0,0,0,0,0,0,0,0,0,0,0,0,0,0,0,0,0,0,0,0,0,0,0,0,0,0,0,0,0,0,0,0,0,0,0,0,0,0,0,0,0,0,0,0,0,0,0,0,0,0,0,0,0,0,0,0,0,0,0,0,0,0,0,0],"sum_hessian":[6.4006E4,5.8933E4,5.073E3,2.6417E4,3.2516E4,2.297E3,2.776E3,1.3605E4,1.2812E4,1.6578E4,1.5938E4,2.011E3,2.86E2,1.42E3,1.356E3,7.688E3,5.917E3,5.671E3,7.141E3,1.451E4,2.068E3,1.0644E4,5.294E3,1.95E2,1.816E3,1.9E2,9.6E1,1.252E3,1.68E2,1.179E3,1.77E2,6.705E3,9.83E2,2.876E3,3.041E3,2.165E3,3.506E3,4.759E3,2.382E3,1.2404E4,2.106E3,1.484E3,5.84E2,7.644E3,3E3,2.989E3,2.305E3,8.7E1,1.08E2,7E2,1.116E3,3.2E1,1.58E2,7.1E1,2.5E1,8.1E2,4.42E2,1.4E2,2.8E1,7.15E2,4.64E2,1.05E2,7.2E1,4.11E3,2.595E3,3.57E2,6.26E2,2.836E3,4E1,2.632E3,4.09E2,2.143E3,2.2E1,2.322E3,1.184E3,2.711E3,2.048E3,1.346E3,1.036E3,1.0285E4,2.119E3,2.009E3,9.7E1,1.215E3,2.69E2,3.32E2,2.52E2,4.281E3,3.363E3,2.583E3,4.17E2,1.812E3,1.177E3,1.55E3,7.55E2,6.6E1,2.1E1,3.3E1,7.5E1,5.49E2,1.51E2,5.79E2,5.37E2,2E0,3E1,9.7E1,6.1E1,6.2E1,9E0,1E0,2.4E1,4.99E2,3.11E2,3.74E2,6.8E1,2.5E1,1.15E2,2E1,8E0,6.07E2,1.08E2,2.24E2,2.4E2,9.1E1,1.4E1,5.3E1,1.9E1],"tree_param":{"num_deleted":"0","num_feature":"21","num_nodes":"127","size_leaf_vector":"1"}},{"base_weights":[9.645362E-2,-2.2282217E0,2.6336319E1,-5.7415037E0,8.807082E0,2.1144386E1,5.6314194E1,-7.2661223E0,1.4780807E1,4.0837235E0,2.902049E1,1.6319172E1,3.7462727E1,4.5853268E1,6.7977745E1,-9.57059E0,2.5694888E0,1.1396644E1,3.0464252E1,7.1302575E-1,2.6737312E1,2.5730993E1,5.2355885E1,1.3440921E1,2.8296722E1,3.103857E1,6.4489494E1,3.5104557E1,5.119724E1,5.562578E1,7.838756E1,-1.112253E1,9.607955E-1,-4.9516673E0,1.1413909E1,9.210595E0,2.2621456E1,2.3363857E1,3.684E1,-2.2671583E0,1.851706E1,2.4481184E1,4.9267673E1,2.2195826E1,4.5674534E1,4.2713234E1,6.2454777E1,1.1206714E1,2.9503307E1,1.6384842E1,3.7521248E1,3.76602E1,1.5824987E1,7.185533E1,4.7648445E1,1.9964916E1,3.7934273E1,4.2701054E1,5.568821E1,5.0839626E1,7.452775E1,7.33523E1,8.0584545E0,-1.1571921E0,-5.322904E-1,-5.707802E-1,7.259691E-1,